{"lstm.weight_ih_l0": [[-0.09333361685276031], [0.005011970177292824], [-0.15286871790885925], [0.0021973864641040564], [0.036327678710222244], [0.002231709426268935], [0.026731524616479874], [0.0005103962030261755], [-0.053423017263412476], [0.0023851420264691114], [0.05149560794234276], [0.08896711468696594], [0.32575634121894836], [0.01238709781318903], [-0.03322737291455269], [-0.0017375966999679804], [0.12340707331895828], [0.05290071666240692], [0.09101175516843796], [-0.14743545651435852], [-0.09170544892549515], [-0.00022192747564986348], [0.001966402167454362], [0.005153106525540352], [0.027927475050091743], [0.040761154145002365], [0.18736281991004944], [0.012450735084712505], [-0.014087256044149399], [-0.0025352854281663895], [0.08192051947116852], [-0.011635341681540012], [-0.06482496112585068], [0.010686521418392658], [-0.015048020519316196], [-0.10441561043262482], [0.018913840875029564], [-0.05439787730574608], [-0.13410697877407074], [0.0005272600683383644], [-0.03452533110976219], [0.07184061408042908], [0.03408876433968544], [0.02236996218562126], [0.4064859449863434], [0.20669913291931152], [-0.06015436351299286], [-0.026820490136742592], [-0.1271982491016388], [0.029960179701447487], [0.038733940571546555], [-0.14849194884300232], [-0.10583038628101349], [-0.002425749320536852], [0.1668483018875122], [-0.00268095126375556], [-0.005671203136444092], [0.04532907158136368], [0.1153901070356369], [-0.00248800334520638], [-0.011164221912622452], [0.09342781454324722], [-0.026541365310549736], [-0.03336021676659584], [0.23850636184215546], [0.044343627989292145], [0.2528640329837799], [-0.04692097008228302], [-0.008281232789158821], [0.012198016978800297], [-0.020074157044291496], [0.028530150651931763], [-0.0009445094037801027], [-1.5783404111862183], [-0.026568641886115074], [-0.1685439646244049], [2.1293113231658936], [0.27799078822135925], [-0.1460563689470291], [0.02443101815879345], [0.025276754051446915], [0.012513131834566593], [-0.15606506168842316], [-0.10592998564243317], [0.10140831023454666], [-0.0016845943173393607], [0.17293120920658112], [-0.03589828312397003], [0.054738860577344894], [-0.0741412565112114], [-0.1735031008720398], [0.13131950795650482], [-0.22554193437099457], [-0.02170151099562645], [-0.10337276756763458], [0.1269988715648651], [0.06299072504043579], [0.006293787620961666], [-0.2099405825138092], [0.05236032232642174], [0.027323396876454353], [-0.039944782853126526], [0.05527243763208389], [0.0010346174240112305], [-0.20132599771022797], [-0.008555029518902302], [-0.018958136439323425], [0.007306723855435848], [0.40021589398384094], [0.17130602896213531], [-0.03377199172973633], [0.00029027037089690566], [0.10022927075624466], [0.015661831945180893], [0.06644605845212936], [-0.1255793422460556], [-0.08217902481555939], [0.034001998603343964], [0.2894814908504486], [0.0033812473993748426], [0.04028947651386261], [-0.25304800271987915], [0.03640447184443474], [-0.0053051975555717945], [-0.04726638272404671], [-0.016433201730251312], [-0.030521033331751823], [0.025573302060365677]], "lstm.weight_hh_l0": [[-0.08332932740449905, 0.006780007854104042, -0.22386622428894043, 0.3723672032356262, 0.022451462224125862, 0.0848606526851654, -0.047549013048410416, -0.009485935792326927, -0.05642787367105484, 0.05477330461144447, -0.15674251317977905, -0.23574921488761902, -0.135695219039917, -0.19159811735153198, -0.19692137837409973, 0.17879953980445862, 0.017945637926459312, -0.025136489421129227, -0.03830472007393837, 0.19494596123695374, -0.03547098860144615, -0.4743092954158783, -0.09753070771694183, 0.03701835125684738, -0.08739307522773743, 0.18374866247177124, -0.03205936402082443, 0.01662670262157917, -0.011326896026730537, -0.07219642400741577, 0.015473531559109688, 0.44159621000289917], [0.01808333769440651, 0.002605258487164974, -0.025496454909443855, 0.011419195681810379, -0.0033036500681191683, -0.0015886365436017513, 0.004290561657398939, 0.0014035275671631098, 0.006930260453373194, 0.02787042409181595, -0.023889901116490364, -0.016095394268631935, 0.023509886115789413, -0.001603130018338561, -0.008274216204881668, -0.013754385523498058, -0.0025142738595604897, 0.01648675464093685, 0.0067708175629377365, 0.00037262204568833113, 0.013202108442783356, -0.02762206830084324, 0.038810037076473236, 0.00048333388986065984, 0.012754294089972973, -0.004845575429499149, -0.06777460128068924, 0.002361190738156438, -0.008551105856895447, 0.0003588639374356717, -0.021914582699537277, 0.03577964007854462], [0.21663743257522583, 0.17385628819465637, -0.21640382707118988, 0.5745077133178711, -0.022923124954104424, -0.10570114850997925, 0.3607323169708252, -0.03264594450592995, 0.005482673645019531, -1.0527793169021606, -0.5120100378990173, -0.4492050111293793, 0.08058872073888779, 0.280496209859848, -0.047565948218107224, -0.24302126467227936, 0.11086750030517578, -0.2044343650341034, 0.06500246375799179, -0.053039152175188065, 0.11239955574274063, -0.7761971950531006, 0.1502738744020462, -0.017600053921341896, -0.1716199815273285, 0.19787536561489105, -1.2265660762786865, -0.034887321293354034, -0.05233892798423767, 0.21017834544181824, 0.2621893882751465, 0.7267556190490723], [-0.004315804224461317, -0.0018115928396582603, 0.05796114727854729, -0.12935997545719147, -0.009763802401721478, -0.00952153466641903, -0.07622525095939636, 0.00227734399959445, 0.0725746676325798, -0.03802023455500603, 0.08303753286600113, -0.0016376642743125558, -0.008899268694221973, 0.014052203856408596, 0.011300182901322842, -0.02289639227092266, -0.00606467155739665, 0.037492334842681885, 0.015404698438942432, 0.02943800762295723, 0.0338861383497715, 0.22394207119941711, 0.01551327295601368, 0.004141657613217831, 0.02015731856226921, -0.06125772371888161, 0.006553230807185173, -0.0034356762189418077, 0.021366681903600693, -0.015550230629742146, -0.0820017009973526, -0.22214852273464203], [0.010078533552587032, 0.005896458867937326, -0.024057388305664062, 0.1113208532333374, -0.007261266000568867, -0.011520162224769592, 0.11326264590024948, 0.0023250810336321592, -0.008867237716913223, 0.0067574577406048775, -0.06680497527122498, -0.020674733445048332, 0.05813869461417198, 0.06493804603815079, -0.010936124250292778, 0.022656826302409172, 0.02082664705812931, -0.002180636627599597, 0.015452144667506218, -0.021907752379775047, 0.0683014839887619, -0.15201304852962494, 0.0042340196669101715, -9.806506568565965e-05, 0.009028988890349865, 0.044025011360645294, -0.060711998492479324, -1.3532181583286729e-05, 0.0006166694802232087, -0.004023073706775904, 0.020317940041422844, 0.152934730052948], [0.029503507539629936, 0.02047266624867916, -0.13196580111980438, -0.028772596269845963, 0.0017057014629244804, 0.00817983876913786, -0.10299360752105713, -0.0039137606509029865, 0.01585499942302704, -0.018470173701643944, 0.1411469429731369, -0.03166267275810242, 0.021092614158988, -0.05513674020767212, -0.08196176588535309, -0.025300415232777596, -0.09138145297765732, -0.020676441490650177, -0.03366786986589432, 0.015742996707558632, -0.025747936218976974, 0.11695414036512375, 0.1301695555448532, 0.001246356638148427, -0.026245977729558945, -0.036677051335573196, 0.04348185285925865, 0.01763353869318962, -0.0005693825660273433, 0.010933268815279007, -0.08432897180318832, -0.06631756573915482], [-0.3748258054256439, -0.004403253551572561, 0.023060740903019905, 0.9990956783294678, -0.1517443060874939, -0.13208343088626862, -0.013292323797941208, 0.00703602796420455, 0.03032027743756771, -0.09145030379295349, -0.6795768737792969, -0.45568418502807617, -0.1476898342370987, -0.16113191843032837, 0.09699203073978424, -0.004136066883802414, 0.2167220413684845, -0.48873981833457947, 0.06180242821574211, 0.06467640399932861, -0.29431596398353577, -0.8163659572601318, -0.18693511188030243, 0.1654585599899292, 0.011077185161411762, 0.07187014818191528, 0.15983092784881592, 0.0031600918155163527, -0.11658366024494171, 0.3057824373245239, 0.2937958836555481, 0.7142347693443298], [0.008768236264586449, -0.0004683244333136827, -0.012925246730446815, 0.023012978956103325, 0.000312280491925776, -0.0036424417048692703, 0.01670098677277565, 0.0006028059870004654, -5.106080789119005e-05, 0.0023986713495105505, -0.022236470133066177, -0.0017112384084612131, 0.0031894538551568985, -0.010309258475899696, -0.0013118464266881347, -0.0026047269348055124, 0.002752151573076844, -0.004146752879023552, 0.0011163981398567557, -0.000941812468226999, 0.009244395419955254, -0.060657620429992676, 0.0016503703081980348, 0.00030609709210693836, 0.0019874039571732283, 0.005935752298682928, -0.02661033160984516, 0.0002678467717487365, -0.004089811351150274, 0.0019622936379164457, 0.0007227121386677027, 0.05691143870353699], [0.46584030985832214, -0.06836061179637909, -7.229043694678694e-05, 0.09860526770353317, -0.012255964800715446, 0.10800529271364212, 0.008943149819970131, 0.021024923771619797, -0.07286511361598969, -0.2076272815465927, -0.3219173848628998, 0.017855674028396606, -0.17964118719100952, -0.04632018506526947, 0.08757400512695312, 0.02114887721836567, 0.09188476949930191, -0.03833062946796417, 0.08574237674474716, -0.03347359970211983, 0.04642421007156372, -0.24717502295970917, -0.07498233020305634, 0.023111524060368538, -0.058560699224472046, 0.07838965952396393, -0.2848556637763977, 0.009059708565473557, -0.08810752630233765, 0.013637948781251907, 0.12075690925121307, 0.2372150719165802], [0.10357275605201721, 6.660750659648329e-05, 0.1803767830133438, -0.2883208692073822, -0.007306912448257208, -0.007242800202220678, -0.21387061476707458, 0.0005611835513263941, 0.11996857076883316, -0.029647011309862137, 0.23845069110393524, 0.08096976578235626, -0.013464224524796009, 0.005851483438163996, 0.08369886875152588, -0.03285498544573784, 0.014089836739003658, 0.032863207161426544, 0.015738489106297493, -0.007279266137629747, -0.21239499747753143, 0.4866471588611603, 0.025100285187363625, 0.006944917608052492, -0.023488633334636688, -0.18769049644470215, 0.1269984394311905, 0.00708440225571394, 0.012517690658569336, 0.03560895100235939, 0.012308938428759575, -0.4751366674900055], [-0.281594842672348, 0.03233684226870537, -0.34994685649871826, 0.651084303855896, 0.18503421545028687, -0.0040278141386806965, -0.07709316909313202, -0.04729319363832474, -0.1679445207118988, 0.060573432594537735, -0.07739611715078354, -0.05051933228969574, -0.0456603467464447, -0.720648467540741, -0.4791744351387024, -0.19036272168159485, -0.18730689585208893, 0.1001170203089714, -0.3065130114555359, -0.19197094440460205, 0.5631498098373413, -0.7732347249984741, 0.017785919830203056, 0.05000820383429527, -0.09682626277208328, 0.09838826209306717, -0.06672484427690506, 0.043290119618177414, -0.013322274200618267, -0.28168660402297974, 0.5986601114273071, 0.7791800498962402], [-0.18293331563472748, -0.012862985953688622, -0.04452059417963028, 0.06368497014045715, -0.004387110937386751, 0.012153743766248226, -0.0044825319200754166, -0.005193786695599556, -0.05468915030360222, -0.11356257647275925, -0.02766711823642254, -0.06282117962837219, -0.02248363010585308, 0.03756535425782204, 0.02024499699473381, 0.12855486571788788, 0.06645481288433075, 0.07079585641622543, -0.012493569403886795, 0.08663817495107651, -0.07782997936010361, -0.05378863587975502, 0.049749113619327545, -0.005629768129438162, 0.030879730358719826, -0.010416530072689056, -0.05177135765552521, -0.020599719136953354, 0.04204443469643593, -0.010875733569264412, -0.0905182734131813, 0.06125244125723839], [-0.15380753576755524, 0.00861177034676075, 0.6741337180137634, -0.21153847873210907, -0.006278808228671551, -0.02155216410756111, -0.10747681558132172, 0.00013057826436124742, 0.169997900724411, -0.02294882759451866, 0.10085970163345337, 0.18401142954826355, -0.07178541272878647, 0.06023291125893593, 0.09759838879108429, 0.061443690210580826, -0.0005078662070445716, 0.09230566769838333, -0.012881130911409855, 0.0018849668558686972, -0.06714577972888947, 0.1486399918794632, -0.39447933435440063, 0.020405543968081474, -0.08243346214294434, -0.04339563474059105, 0.5309998393058777, 0.053169701248407364, 0.017535565420985222, 0.05015858635306358, 0.16443082690238953, -0.15941564738750458], [-0.029345843940973282, 0.004664864391088486, 0.21815840899944305, -0.2164308726787567, -0.00891337264329195, 3.410209728826885e-06, -0.2976478934288025, -0.0013895472511649132, 0.04063386097550392, 0.04530481621623039, 0.34920212626457214, 0.01970687508583069, 0.019799979403614998, -0.03417984023690224, 0.01237874198704958, -0.012247245758771896, -0.04311031475663185, 0.011616189032793045, 0.0031671866308897734, -0.0026003497187048197, -0.2550639808177948, 0.40998348593711853, 0.033181872218847275, -0.004669943358749151, 0.004006058908998966, -0.15004011988639832, 0.24766495823860168, 0.003447818337008357, 0.0505509227514267, 0.023538019508123398, -0.08705666661262512, -0.40213844180107117], [0.03891557827591896, 0.006217425689101219, -0.06834517419338226, -0.026923496276140213, 0.0008779610507190228, -0.04591416195034981, -0.03362780436873436, -0.00452838372439146, 0.08594348281621933, -0.035110872238874435, 0.0855427160859108, 0.06237403303384781, 0.0026062973774969578, 0.006724020000547171, -0.0774523988366127, -0.007986714132130146, -0.02364278770983219, 0.07679563760757446, -0.023341545835137367, -0.02806815691292286, -0.014652561396360397, 0.07854784280061722, 0.03985561430454254, -0.00872541218996048, 0.020098119974136353, -0.03153422847390175, -0.02627897821366787, -0.0050392611883580685, 0.01289162877947092, 0.003550201654434204, -0.008606272749602795, -0.06303296238183975], [0.1658964455127716, 0.012575431726872921, 0.13031278550624847, -0.16910767555236816, -0.01146309357136488, -0.011718351393938065, -0.103555828332901, 0.00031869803206063807, 0.10784069448709488, 0.053131166845560074, 0.18182943761348724, 0.065096914768219, 0.051021501421928406, -0.02012328803539276, 0.009854966774582863, -0.04032285884022713, -0.047118183225393295, 0.026053743436932564, 0.015447868034243584, -0.030636444687843323, -0.14151817560195923, 0.21900096535682678, 0.05624277889728546, 0.005006109829992056, -0.026860089972615242, -0.12550683319568634, 0.1259775012731552, 0.010094896890223026, 0.01154440175741911, 0.029724763706326485, -0.024712052196264267, -0.20341357588768005], [-0.24994471669197083, 0.03795821592211723, -0.1237846165895462, 0.10071121156215668, 0.009961006231606007, 0.003264650469645858, 0.06178813427686691, -0.02572859451174736, -0.1352648138999939, -0.012263132259249687, 0.03187937289476395, -0.038430243730545044, -0.04378218576312065, -0.010213067755103111, -0.09790456295013428, -0.006525775417685509, -0.12616103887557983, 0.07428936660289764, -0.1307094246149063, 0.08290539681911469, 0.2304041087627411, -0.20874649286270142, -0.1911693960428238, -0.006516819819808006, -0.016849713400006294, -0.042433302849531174, 0.056064337491989136, 0.03648343309760094, 0.07802189141511917, 0.13768965005874634, 0.03255600109696388, 0.23056702315807343], [-0.03229457512497902, 0.008810631930828094, -0.009953509084880352, -0.03069421648979187, -0.02213405817747116, 0.008977420628070831, -0.024626854807138443, 0.005139342974871397, 0.07269575446844101, -0.09968949854373932, 0.05892876535654068, -0.05653693899512291, 0.0324619896709919, -0.08850247412919998, -0.045550636947155, -0.03900976479053497, -0.03686529025435448, 0.06108655408024788, 0.048789579421281815, 0.07585153728723526, 0.04703866317868233, 0.06542176008224487, -0.13676322996616364, -0.005860351491719484, 0.0791814774274826, -0.027193203568458557, 0.0022070249542593956, -0.008002996444702148, -0.00959971733391285, -0.07214698195457458, -0.12064003199338913, -9.400256385561079e-05], [-0.10647854208946228, -0.009249979630112648, 0.08854058384895325, 0.02927028015255928, -0.012755250558257103, 0.028775999322533607, 0.033054884523153305, 0.008092052303254604, -0.057118043303489685, 0.0128381522372365, 0.008891082368791103, -0.007390379440039396, 0.010518952272832394, 0.05504634976387024, -0.04492352530360222, 0.026620056480169296, 0.03430074825882912, 0.11788331717252731, 0.03099854849278927, 0.014712659642100334, 0.10358443111181259, -0.028931336477398872, -0.06381762772798538, -0.025107592344284058, 0.07202338427305222, 0.09430737048387527, 0.02131928876042366, -0.024194367229938507, 0.03523377701640129, -0.08787225186824799, -0.009193659760057926, 0.04285057261586189], [0.22816036641597748, 0.008318276144564152, -0.0658266469836235, -0.002033033175393939, -0.007403241936117411, -0.0694468766450882, 0.08228269964456558, -0.0049778614193201065, 0.01888968236744404, -0.03634875640273094, 0.07594658434391022, -0.03455356881022453, -0.01978439651429653, -0.03555146977305412, 0.03218882903456688, -0.00020429433789104223, -0.01692400686442852, -0.09156457334756851, 0.004324493929743767, -0.07638642936944962, -0.232681006193161, 0.011025895364582539, 0.08688035607337952, -0.006292670965194702, 0.00917100626975298, 0.004395139403641224, -0.010572986677289009, -0.0068863132037222385, 0.06300061196088791, 0.0834992304444313, 0.05569440871477127, 0.0042778863571584225], [-0.38235339522361755, 0.011631261557340622, -0.10625290870666504, 0.38491159677505493, 0.039905935525894165, -0.13751636445522308, 0.3516496419906616, -0.03792412206530571, -0.12169738113880157, 0.20250919461250305, -0.3474668264389038, 0.051006756722927094, 0.07046931982040405, -0.2574596107006073, -0.130621999502182, 0.11965914815664291, 0.0260123573243618, -0.05603794753551483, -0.11540649086236954, -0.511638879776001, -0.08735300600528717, -0.6997333765029907, -0.08520673960447311, -0.10153304785490036, -0.01977296732366085, 0.11208992451429367, -0.13362909853458405, -0.03136298060417175, 0.1898740977048874, -0.13641813397407532, 0.55003821849823, 0.7571859359741211], [0.016076385974884033, 0.000753456843085587, 0.0339110791683197, -0.06788793951272964, -0.0034001078456640244, 0.0014281435869634151, -0.06461990624666214, -0.0010379013838246465, 0.01328361127525568, 0.003056141547858715, 0.0912022665143013, 0.0077737742103636265, 0.006730986759066582, -0.00041334808338433504, 0.010199181735515594, 0.0016867987578734756, -0.006602820474654436, 0.010573933832347393, 0.0025096277240663767, -0.003123966744169593, -0.0702475905418396, 0.13865135610103607, 0.020933402702212334, 0.0003484408662188798, 0.0008092542411759496, -0.044447749853134155, 0.027809683233499527, 0.0007463546353392303, 0.009287440218031406, 0.006529392674565315, -0.012039401568472385, -0.11689969897270203], [0.09995929896831512, -0.11809700727462769, -0.44672077894210815, 0.3213793635368347, -0.011992274783551693, 0.09840736538171768, 0.16950757801532745, 0.06094219163060188, -0.07780761271715164, 0.21844105422496796, -0.480440616607666, -0.1944926530122757, -0.10824288427829742, -0.3137778043746948, -0.0672401487827301, 0.08804596215486526, -0.019051313400268555, 9.599409168004058e-06, 0.11751318722963333, 0.03223200887441635, 0.15738651156425476, -0.629388153553009, 0.2327580600976944, 0.009167737327516079, 0.19410695135593414, 0.181878000497818, -0.651006281375885, 0.0006681781378574669, -0.09198851883411407, -0.16479648649692535, -0.07349435240030289, 0.5956548452377319], [-0.03800855204463005, 0.0008027427247725427, -0.0393095538020134, 0.08120305836200714, -0.00235095527023077, 0.019096434116363525, 0.07987041771411896, 0.001579935080371797, -0.03218534588813782, -0.044516220688819885, -0.04464494436979294, -0.008991777896881104, -0.030187146738171577, -0.022124143317341805, -0.003186451969668269, 0.01564982160925865, -0.0019450418185442686, 0.04576752334833145, 0.013082658872008324, -0.0011864339467138052, 0.08854591846466064, -0.10521268844604492, -0.03192967548966408, -0.0038787811063230038, 0.011075766757130623, 0.05246984586119652, -0.021993767470121384, -0.0019220045069232583, 0.004270466510206461, 0.026915254071354866, 0.012068316340446472, 0.1230563148856163], [-0.05437212809920311, 0.012786606326699257, 0.10924471169710159, 0.031734924763441086, 0.004842231050133705, -0.0418197400867939, 0.019570354372262955, -0.004370659124106169, 0.048266585916280746, 0.0516287125647068, 0.07807619124650955, 0.024106057360768318, -0.011906255967915058, -0.1178518608212471, -0.001966596581041813, 0.037691276520490646, -0.05698259547352791, -0.006369483191519976, 0.008843936957418919, 0.089969202876091, 0.02574840933084488, 0.023258104920387268, -0.2330327332019806, 0.009888751432299614, 0.020133458077907562, 0.0084156459197402, -0.0627005472779274, 0.01202141959220171, 0.026942210271954536, -0.029643673449754715, 0.05037160962820053, 0.02824418619275093], [0.09022773802280426, -0.023492246866226196, -0.03793410211801529, 0.11195193231105804, -0.003978184424340725, 0.026021724566817284, 0.10675602406263351, 0.012136505916714668, 0.12776386737823486, 0.04247450456023216, -0.15609492361545563, -0.07953517884016037, 0.23884622752666473, 0.2178957313299179, 0.059510160237550735, -0.2069229930639267, 0.002671971917152405, -0.103310227394104, 0.011356118135154247, 0.008243552409112453, 0.1368234008550644, -0.1048358827829361, 0.012969032861292362, 0.021294262260198593, 0.08377242088317871, 0.00568773178383708, -0.008304653689265251, 0.0020164051093161106, -0.13569125533103943, 0.07672947645187378, 0.03248823061585426, 0.10593641549348831], [0.10760777443647385, 0.053473614156246185, -0.09041234105825424, 0.18960820138454437, -0.021442553028464317, 0.013009767979383469, 0.16205289959907532, -0.026295756921172142, 0.03627467527985573, 0.9595093131065369, -0.19540084898471832, 0.05900758132338524, 0.5765202641487122, 0.21809162199497223, 0.12987785041332245, -0.1351809948682785, -0.03660358861088753, -0.09881105273962021, -0.03190211206674576, -0.08390866219997406, 0.12377406656742096, -0.11136432737112045, -0.07851032167673111, 0.021373191848397255, -0.02101653441786766, -0.09931981563568115, 0.054718244820833206, 0.07306472957134247, 0.015434633940458298, 0.16354261338710785, -0.016960998997092247, 0.1403692662715912], [-0.029535269364714622, 0.004916634410619736, -0.022753261029720306, 0.07877105474472046, -0.003323023207485676, 0.029744261875748634, 0.04058640077710152, 0.0052191042341291904, -0.00807426031678915, -0.12482491880655289, -0.039490070194005966, -0.0841064527630806, -0.08590832352638245, -0.11252560466527939, -0.02920699305832386, 0.0010864351643249393, 0.0015257649356499314, 0.020738206803798676, 0.05097535625100136, 0.012868113815784454, 0.046031657606363297, -0.09121011197566986, 0.0073183318600058556, -0.005664890632033348, 0.0044474368914961815, 0.042850181460380554, -0.009232806973159313, -0.0059931958094239235, -0.025780202820897102, 0.023077499121427536, -0.029804205521941185, 0.11082823574542999], [-0.048551272600889206, 0.01666402257978916, 0.004497526213526726, 0.15314286947250366, -0.0019663083367049694, -0.06953024864196777, 0.0734926238656044, 0.0027340096421539783, -0.04608466103672981, -0.07516114413738251, 0.009321100078523159, 0.029855597764253616, -0.08149951696395874, -0.12686903774738312, -0.03033919632434845, 0.02514452300965786, 0.010061482898890972, 0.04915514588356018, -0.020445575937628746, -0.07983717322349548, 0.08417722582817078, -0.08118302375078201, -0.055993739515542984, -0.0024540401063859463, 0.08093404024839401, 0.053836558014154434, -0.045489102602005005, 0.011169272474944592, 0.04227851703763008, -0.0942147746682167, 0.10448230057954788, 0.10092288255691528], [0.009444331750273705, -0.006408983841538429, -0.001260833814740181, -0.011541060172021389, -0.03611598163843155, 0.0749703049659729, 0.0182525385171175, 0.00362529163248837, -0.04363878071308136, 0.028344683349132538, 0.06367544084787369, 0.04880159720778465, 0.02818269468843937, 0.020013032481074333, 0.005449750926345587, 0.03932179510593414, -0.006737946532666683, 0.10473684221506119, -0.033795516937971115, 0.03917578235268593, 0.06486549973487854, -0.02766585908830166, -0.00295254192315042, -0.048609424382448196, -0.0064872982911765575, -0.07128661870956421, 0.014712081290781498, -0.004021219443529844, 0.12277672439813614, 0.11014991998672485, -0.051579561084508896, 0.02052675560116768], [-0.3434703052043915, 0.0156442541629076, 0.18881984055042267, -0.03548407182097435, 0.004538567271083593, 0.05755982547998428, 0.04535539075732231, 0.0007453805301338434, -0.041560910642147064, -0.006492826621979475, 0.05036520957946777, 0.05172451585531235, 0.00451376149430871, 0.03008054941892624, -0.08336249738931656, -0.04848671332001686, 0.19613324105739594, 0.15289033949375153, 0.026457637548446655, -0.04665467515587807, 0.018754087388515472, 0.02168113924562931, -0.06289076060056686, -0.022673029452562332, -0.08594763278961182, 0.039090029895305634, 0.08765082061290741, -0.006015980150550604, -0.0015560073079541326, 0.05266089364886284, -0.0660964846611023, -0.031069543212652206], [-0.007616574410349131, -0.005398800130933523, 0.10081727802753448, -0.06970476359128952, 0.002506264252588153, -0.012595819309353828, -0.07278433442115784, -0.003732085693627596, 0.012007658369839191, 0.04446834325790405, 0.08004661649465561, 0.04945600777864456, -0.00059271021746099, 0.008931893855333328, 0.03446068987250328, -0.018164673820137978, 0.009145155549049377, 0.026767076924443245, -0.009568882174789906, 0.005037118215113878, -0.05571243539452553, 0.14814017713069916, -0.03805926442146301, -0.00037490727845579386, -0.0015467626508325338, -0.050280071794986725, 0.05922941863536835, -0.006807055324316025, 0.014210883527994156, 0.0022169065196067095, 0.0017436981434002519, -0.12140916287899017], [0.1418658196926117, -0.004720233380794525, -0.038289397954940796, -0.6389849185943604, -0.02775919996201992, 0.09690165519714355, -0.3245440125465393, -0.00296610570512712, 0.09732815623283386, 0.13475100696086884, 0.42711424827575684, 0.17244264483451843, 0.08362739533185959, 0.4745398163795471, 0.016145184636116028, -0.0700119212269783, -0.18582016229629517, 0.14453530311584473, -0.06229285150766373, 0.1214480996131897, 0.05678993836045265, 0.746804416179657, 0.14410100877285004, 0.0013570368755608797, 0.012488175183534622, -0.14281116425991058, -0.2074352353811264, 0.031537607312202454, 0.0417606346309185, 0.04068584740161896, -0.14416921138763428, -0.7147326469421387], [0.03314860165119171, 0.00036177888978272676, -0.017130276188254356, -0.03071758709847927, -0.0016981352819129825, -0.012337417341768742, -0.025171007961034775, 0.00025480493786744773, 0.021738315001130104, -0.0013361171586439013, 0.017500925809144974, 0.0027444292791187763, 0.013785961084067822, -0.024288726970553398, -0.00654306635260582, -0.01879630796611309, -0.005139933433383703, 0.014225146733224392, 0.006775831803679466, -0.0029893957544118166, -0.017129629850387573, 0.02820848487317562, 0.054001227021217346, 0.000703103665728122, 0.0076581253670156, -0.021533431485295296, -0.011473788879811764, 0.002466252539306879, -0.0036274236626923084, 0.00180287123657763, -0.01816106215119362, -0.01986963115632534], [0.13651268184185028, 0.008630690164864063, 0.36832109093666077, -0.7511261105537415, -0.03064657188951969, -0.0877852663397789, -0.34504690766334534, -0.017621943727135658, 0.1360791176557541, 0.27416273951530457, 0.5745140910148621, 0.6559049487113953, 0.03005589172244072, 0.15628230571746826, 0.28116047382354736, -0.18579904735088348, 0.0225212462246418, 0.22084593772888184, 0.03616144135594368, -0.059453435242176056, -0.06883561611175537, 1.0504549741744995, -0.2482585906982422, -0.04734402522444725, -0.09701882302761078, -0.34011971950531006, 0.4711301326751709, -0.03753722086548805, 0.14835228025913239, 0.19812153279781342, -0.12008316069841385, -1.021693468093872], [-0.14042408764362335, -0.028886165469884872, -0.0064718956127762794, -0.2196960598230362, -0.01789417490363121, -0.024335680529475212, -0.08246739953756332, 0.011727015487849712, 0.17978894710540771, -0.21458931267261505, 0.08055909723043442, 0.01119696069508791, -0.15148940682411194, -0.04675484448671341, -0.023922402411699295, 0.008597309701144695, 0.07104837149381638, 0.06823858618736267, 0.02729177102446556, 0.14775508642196655, 0.12169136106967926, 0.3128959536552429, -0.01773223653435707, -0.0027500856667757034, 0.09450757503509521, -0.033727794885635376, 0.015885649248957634, -0.03347350284457207, 0.03794006630778313, -0.15153498947620392, -0.2988373935222626, -0.3057703375816345], [0.01603158935904503, 0.003429364413022995, -0.03477458283305168, 0.04094935208559036, -0.005667713470757008, -0.01354941911995411, 0.05401253700256348, 0.001651424914598465, 0.0010309122735634446, 0.0013107875129207969, -0.04217962920665741, -0.01613791473209858, 0.038190726190805435, 0.03584820777177811, -0.009388801641762257, 0.01114964485168457, 0.008408069610595703, 0.003201633458957076, 0.010949837043881416, -0.012022586539387703, 0.03538050875067711, -0.020107056945562363, 0.027749983593821526, 0.00011893067858181894, 0.006864715833216906, -0.014789548702538013, -0.052042778581380844, 0.0004896651953458786, 0.000626076536718756, -0.0017869258299469948, -0.010274790227413177, 0.027580099180340767], [0.025065094232559204, 0.009875848889350891, -0.19181163609027863, -0.02917172759771347, -0.0105183320119977, 0.017737938091158867, -0.12232252210378647, -0.008075565099716187, 0.058779604732990265, 0.018935102969408035, 0.06925636529922485, -0.11283078789710999, 0.02865423448383808, -0.012320993468165398, -0.021689239889383316, -0.002139099407941103, -0.015885978937149048, -0.05961732566356659, 0.03107287548482418, 0.06585969775915146, -0.015391819179058075, 0.09329523146152496, 0.2114996612071991, 0.0034293110948055983, -0.01974378153681755, -0.044413890689611435, 0.03403577581048012, -0.006879338063299656, -0.006715313531458378, 0.02801564149558544, -0.16455382108688354, -0.07114028185606003], [0.05211460590362549, -0.07611238956451416, 0.38169988989830017, 0.22472809255123138, -0.149490624666214, -0.19898654520511627, -0.2382223755121231, 0.0025055387523025274, -0.1838420182466507, -0.15104806423187256, 0.3729079067707062, -0.09613489359617233, 0.016085809096693993, 0.0682063102722168, 0.6155433058738708, 0.06453204154968262, 0.3074658215045929, -0.5652150511741638, 0.09969104081392288, 0.27512627840042114, -1.2341591119766235, 1.0162495374679565, 0.13263295590877533, 0.06557260453701019, 0.06678581237792969, 0.09154294431209564, -0.016512563452124596, 0.09241721034049988, -0.003203738247975707, 0.2874264121055603, -0.566967785358429, -0.7407873272895813], [0.007995057851076126, -0.0003095050633419305, -0.009685526601970196, 0.007215878460556269, 0.00030872400384396315, -0.0040831295773386955, 0.0065510571002960205, 0.0003574845613911748, 0.0001244370505446568, 0.0006908645736984909, -0.0073888907209038734, -0.00021849721088074148, 0.00209211022593081, -0.009766492061316967, -0.0015726739075034857, -0.0030910740606486797, 0.002611572155728936, -0.0007112930761650205, 0.00034616966149769723, -0.0010515839094296098, 0.0041533359326422215, -0.012809944339096546, 0.003519743913784623, 0.0001706803886918351, 0.0009880793513730168, 0.0026925180573016405, -0.014114233665168285, 1.713035089778714e-05, -0.0026191622018814087, 0.0017351838760077953, 0.00017043191473931074, 0.014357592910528183], [0.5687000155448914, -0.048422835767269135, 0.15116050839424133, -0.1255449652671814, -0.03592730313539505, 0.05794254317879677, -0.2540547847747803, 0.018431508913636208, 0.04527953267097473, -0.038968488574028015, -0.08744718879461288, -0.03151332214474678, -0.00014858260692562908, 0.08744543790817261, 0.19961588084697723, -0.02526940405368805, 0.06497994065284729, -0.0680612176656723, 0.06476614624261856, 0.02806253172457218, -0.24812781810760498, 0.35428929328918457, -0.0019648473244160414, 0.03287286311388016, -0.028752759099006653, -0.11225712299346924, -0.251724511384964, 0.018794026225805283, -0.0598582923412323, 0.11844822764396667, 0.07095080614089966, -0.30756187438964844], [-0.21344980597496033, 0.009542563930153847, 0.6113436818122864, -0.11288825422525406, 0.028862688690423965, -0.09883631020784378, -0.010721760801970959, -0.010811073705554008, -0.0016244313446804881, 0.13474097847938538, -0.15356189012527466, 0.21759364008903503, -0.20835086703300476, -0.01704620011150837, 0.19743677973747253, -0.13497331738471985, 0.08366280794143677, -0.08694509416818619, -0.03903065249323845, 0.050180576741695404, 0.07037250697612762, 0.03822425752878189, -0.5285883545875549, 0.026927508413791656, -0.06903771311044693, -0.07715072482824326, 0.6232645511627197, 0.027511924505233765, 0.03789525851607323, -0.08680922538042068, 0.09320613741874695, -0.07269816845655441], [0.5357462167739868, -0.002116016112267971, 0.32928258180618286, -0.5175960659980774, -0.013596968725323677, 0.032301854342222214, -0.7094619274139404, -0.01508356537669897, -0.011170227080583572, -0.3293023705482483, 0.8826765418052673, 0.20928800106048584, 0.021393023431301117, -0.20764568448066711, 0.18268492817878723, -0.01139800064265728, -0.2915467917919159, 0.228108748793602, -0.062485210597515106, 0.05240610986948013, 0.36028823256492615, 0.9405321478843689, -0.04458833485841751, -0.007394382264465094, 0.05275662615895271, -0.1263505518436432, 0.008095869794487953, 0.00428965175524354, -0.08031531423330307, 0.00410345196723938, -0.39540043473243713, -0.8612990975379944], [-0.3084287941455841, -0.021956315264105797, 0.041945524513721466, -0.10805067420005798, -0.013791626319289207, 0.04771704226732254, -0.17148877680301666, 0.00010244076111121103, -0.07621244341135025, 0.015611054375767708, 0.13826116919517517, -0.09099805355072021, -0.045766234397888184, -0.022289104759693146, 0.039131175726652145, 0.06660552322864532, 0.04394425451755524, 0.04529000446200371, 0.04754667356610298, 0.11689814180135727, -0.07745916396379471, 0.24476055800914764, 0.07661353051662445, -0.023553011938929558, 0.0753275528550148, -0.06223495304584503, -0.032998546957969666, -0.03991435468196869, 0.041201625019311905, 0.08168090879917145, -0.21204282343387604, -0.2473624348640442], [-0.11219369620084763, -0.002570614917203784, 0.4075320065021515, -0.08068779110908508, 0.032214753329753876, -0.01621093414723873, -0.122349314391613, -0.00699768029153347, 0.03758097067475319, 0.3280631899833679, 0.18799951672554016, 0.09421280026435852, 0.11712667346000671, 0.0299905464053154, -0.0908529981970787, 0.04840603470802307, -0.07314047962427139, 0.09180407226085663, -0.05052187666296959, -0.13726350665092468, -0.002638134639710188, -0.01634577102959156, -0.3045310974121094, 0.002415190450847149, -0.12154067307710648, 0.009982514195144176, 0.7360157370567322, 0.03219382464885712, 0.04942436143755913, 0.10232160240411758, 0.1637522429227829, -0.0007202089764177799], [0.2954181730747223, 0.03352309763431549, 0.4118503928184509, 0.06151257082819939, 0.03514410927891731, -0.14560766518115997, -0.07257503271102905, -0.03973258286714554, -0.05301550775766373, -0.16344673931598663, 0.0723801851272583, -0.1412639021873474, 0.0788547694683075, -0.11554654687643051, 0.07683251053094864, -0.03439396992325783, -0.03145000711083412, -0.08560723066329956, -0.07203139364719391, -0.10253886878490448, -0.13041718304157257, 0.07394175976514816, -0.015970395877957344, 0.04465297982096672, -0.05829831585288048, -0.15268844366073608, 0.39836108684539795, 0.033235736191272736, 0.08458270132541656, 0.010756603442132473, 0.1465482860803604, -0.09977101534605026], [0.0735287070274353, 0.006204846315085888, -0.104729063808918, -0.023490333929657936, 0.00631877314299345, -0.02471311017870903, -0.031147832050919533, -0.008569044061005116, 0.07423722743988037, -0.045082420110702515, 0.09113723784685135, 0.09087540209293365, -0.009736024774610996, 0.012814094312489033, -0.10150833427906036, 0.015125551261007786, -0.04966820776462555, 0.08396963775157928, -0.04730474203824997, -0.04806755483150482, -0.028648942708969116, 0.08988198637962341, 0.09721343964338303, -0.008979455567896366, -0.030862554907798767, -0.038900043815374374, 0.003531916532665491, -0.0036141928285360336, 0.018006542697548866, 0.05132922902703285, 0.0158127062022686, -0.09254565089941025], [0.21894514560699463, -0.005262839142233133, -0.026915453374385834, -0.05296052619814873, 0.008037843741476536, -0.04050704091787338, -0.009662441909313202, -0.005924258381128311, 0.10446026176214218, 0.09044350683689117, -0.0190473273396492, 0.07768291234970093, -0.03776546195149422, -0.08416720479726791, 0.0350697860121727, -0.08654475957155228, -0.02204492874443531, -0.10528670996427536, 0.008139383047819138, -0.000199813861399889, -0.0044310870580375195, 0.001546952174976468, 0.06684168428182602, 0.016106601804494858, -0.07372939586639404, -0.012615527026355267, 0.17563605308532715, -0.0027543457690626383, -0.008976574055850506, 0.012520132586359978, 0.0023283956106752157, -0.0028655831702053547], [0.10452508181333542, -0.005442553199827671, -0.01452865544706583, -0.20298175513744354, -0.010959053412079811, 0.05795053020119667, -0.2579382061958313, 0.005102164577692747, 0.024176815524697304, 0.009812322445213795, 0.3303995132446289, -0.03363493084907532, -0.03395289555191994, 0.033076971769332886, 0.030264968052506447, -0.032860420644283295, -0.13990448415279388, -0.0999549925327301, -0.010484477505087852, 0.1838722974061966, -0.030774343758821487, 0.37030601501464844, -0.015266019850969315, 0.007978769019246101, -0.01722499541938305, -0.05788884684443474, 0.07015641033649445, -0.035679254680871964, -0.010259098373353481, 0.03042343445122242, -0.30769413709640503, -0.3321189284324646], [0.09684746712446213, 0.006426310632377863, 0.11224742978811264, -0.18240684270858765, -0.032050441950559616, -0.043731123208999634, -0.15283669531345367, 0.0035100679378956556, 0.01599196530878544, -0.12462934106588364, 0.05641203746199608, -0.08282513916492462, -0.04008384793996811, -0.013951759785413742, 0.18389242887496948, 0.015537705272436142, -0.11154448986053467, -0.021187203004956245, 0.08544997125864029, 0.07897545397281647, -0.06327526271343231, 0.22164325416088104, 0.1776847243309021, -0.0024638718459755182, 0.09309598803520203, -0.08543097227811813, 0.012080343440175056, -0.03919669985771179, 0.08336792886257172, 0.08337391912937164, -0.15488310158252716, -0.2098395675420761], [-0.0019467574311420321, -0.010841465555131435, 0.0033191489055752754, -0.03656969591975212, -0.013588781468570232, 0.035171493887901306, 0.018453603610396385, 0.005899288225919008, 0.017740381881594658, -0.1379377543926239, 0.018189620226621628, -0.007159864995628595, -0.006408276502043009, 0.07930532842874527, -0.018244855105876923, 0.05114695802330971, 0.0324554517865181, 0.10681404918432236, 0.023865345865488052, 0.05621616914868355, -0.008554064668715, 0.07043584436178207, 0.053989093750715256, -0.012273773550987244, 0.03878742456436157, -0.001836735988035798, -0.08946903795003891, -0.012314305640757084, 0.011447694152593613, -0.0767882764339447, -0.0349428616464138, -0.06474380195140839], [0.2807563841342926, -0.0028979331254959106, -0.11562760174274445, -0.043791625648736954, -0.010902456007897854, -0.051201771944761276, 0.015443517826497555, -0.005061715375632048, 0.07609856873750687, 0.03631501644849777, 0.10209526866674423, -0.023011397570371628, -0.009588312357664108, -0.13089050352573395, 0.05319561809301376, 0.016936451196670532, -0.024241609498858452, -0.07015131413936615, 0.014236886985599995, -0.09542792290449142, -0.2718087434768677, 0.07857146859169006, 0.11067242175340652, 0.0042907241731882095, -0.001985182985663414, -0.013557258993387222, 0.013842539861798286, 0.0016713292570784688, 0.052731387317180634, 0.07600310444831848, 0.09389997273683548, -0.05223483592271805], [0.46241727471351624, -0.0025776324328035116, 0.07503417879343033, -0.6867358684539795, -0.05206840857863426, 0.043999649584293365, 0.06601529568433762, 0.01721223257482052, -0.31827694177627563, 0.2043134570121765, 0.6472727060317993, 0.37441080808639526, 0.1433848887681961, 0.09159556776285172, 0.12510058283805847, -0.021562857553362846, -0.12848420441150665, 0.21631726622581482, 0.04621502384543419, -0.30948686599731445, -0.2863619327545166, 1.0127487182617188, 0.19989673793315887, -0.10197096318006516, -0.062400851398706436, -0.03425610810518265, 0.005336257163435221, -0.031306393444538116, 0.15385295450687408, 0.11895851045846939, -0.12823639810085297, -0.8724340796470642], [0.03624601289629936, -9.852547373156995e-05, 0.07489342242479324, -0.16690529882907867, -0.009969902224838734, 0.0027271618600934744, -0.15481388568878174, -0.0012359570246189833, 0.03432099148631096, 0.011412032879889011, 0.21790811419487, 0.019078882411122322, 0.018358562141656876, 0.0005088787875138223, 0.01875053159892559, 0.009028286673128605, -0.019609510898590088, 0.02717829868197441, 0.00575606944039464, -0.005613164510577917, -0.1615118831396103, 0.34154456853866577, 0.05343068018555641, -0.0008393088937737048, 0.009882255457341671, -0.1090298667550087, 0.06395584344863892, 0.001888740691356361, 0.026425080373883247, 0.01604001596570015, -0.03318211808800697, -0.29723218083381653], [0.17502398788928986, -0.01557591650635004, 0.15204688906669617, -0.4800868332386017, -0.051787372678518295, 0.05722888931632042, -0.28026917576789856, 0.011466708965599537, 0.052357710897922516, 0.02534959837794304, 0.38608571887016296, 0.06616853177547455, 0.27006861567497253, 0.09989217668771744, 0.18947871029376984, 0.10882525146007538, -0.143411323428154, 0.11483898013830185, 0.042285893112421036, 0.09932886809110641, -0.18669553101062775, 0.686662495136261, -0.0662764236330986, -0.003136071376502514, 0.04759121686220169, -0.24947813153266907, 0.006242150440812111, -0.016419101506471634, 0.059124305844306946, 0.039255719631910324, -0.389161080121994, -0.6640169620513916], [-0.022686639800667763, -0.00212580943480134, -0.029456786811351776, 0.01567443460226059, -0.0032596029341220856, 0.010863644070923328, 0.014101234264671803, 0.0011815811740234494, 7.336493581533432e-05, -0.01859941892325878, 0.002939940895885229, -0.00336555321700871, -0.019302913919091225, -0.015086009167134762, -0.0005776551552116871, 0.010794485919177532, -0.005592805799096823, 0.027762526646256447, 0.015200283378362656, 0.010155204683542252, 0.02527933195233345, -0.00454989867284894, 0.016432132571935654, -0.003909566905349493, 0.00465382682159543, -0.01719049923121929, -0.025929972529411316, -0.0066015454940497875, 0.004143038764595985, 0.020385585725307465, -0.02744746394455433, 0.020045552402734756], [0.038146041333675385, -0.011254259385168552, 0.04781204089522362, -0.09146859496831894, -0.023025885224342346, -0.10093884915113449, -0.137163907289505, 0.005611237604171038, 0.24145956337451935, -0.01976468227803707, 0.13802193105220795, -0.05228487774729729, 0.055056601762771606, -0.07781746238470078, 0.021865494549274445, -0.019767263904213905, -0.04124775528907776, -0.05575013905763626, 0.08233485370874405, 0.16991513967514038, -0.08364572376012802, 0.19974227249622345, 0.13061495125293732, 0.004894576501101255, 0.05236631631851196, -0.1203390583395958, -0.08522644639015198, -0.03701847419142723, 0.04278852045536041, 0.010129006579518318, -0.20750361680984497, -0.1632438600063324], [0.11090023815631866, -0.008226338773965836, 0.051718324422836304, -0.17111681401729584, -0.03346405178308487, 0.05960390344262123, -0.12453678995370865, 0.01907070353627205, 0.14374619722366333, 0.033911824226379395, 0.1409958153963089, -0.11048582941293716, 0.3054218590259552, 0.06239088252186775, 0.08290446549654007, -0.165963277220726, -0.021343428641557693, -0.08658374845981598, 0.08533947914838791, 0.008118824101984501, -0.024961000308394432, 0.22489237785339355, -0.015530622564256191, 0.008218889124691486, 0.07365767657756805, -0.07985351234674454, 0.12665024399757385, -0.0145567012950778, -0.11973877996206284, 0.14359033107757568, -0.10847646743059158, -0.2156146764755249], [-0.11328977346420288, 0.0472479909658432, 0.10189198702573776, -0.04773330315947533, -0.01585334911942482, -0.047959767282009125, 0.0018084400799125433, -0.022393271327018738, 0.030607445165514946, 0.26254579424858093, -0.0932980328798294, -0.004798561800271273, 0.17546489834785461, 0.12648488581180573, 0.09210880100727081, -0.036534830927848816, -0.034074295312166214, -0.020574387162923813, -0.04210669547319412, 0.00021383030980359763, 0.1115211546421051, 0.23017355799674988, 0.08684210479259491, 0.007333927322179079, 0.10751993954181671, -0.13131418824195862, 0.07213378697633743, 0.06307335197925568, 0.03666769713163376, 0.07217606157064438, -0.1254272311925888, -0.1725253015756607], [0.0045703197829425335, -0.0017117346869781613, -0.03507237136363983, -0.05021936818957329, -0.01192236877977848, 0.020537694916129112, -0.04754007235169411, 0.008089651353657246, 0.0487079918384552, -0.09622905403375626, 0.05132560804486275, -0.06066853553056717, -0.041929442435503006, -0.09590041637420654, -0.028830332681536674, 0.00047117311623878777, -0.0007911017746664584, 0.024823350831866264, 0.05165644735097885, 0.015298954211175442, -0.042268671095371246, 0.07056891173124313, 0.08343110978603363, -0.00880709569901228, 0.013509492389857769, -0.02834327332675457, -0.03415071219205856, -0.013057167641818523, -0.013525957241654396, 0.0322905071079731, -0.07627446949481964, -0.046052828431129456], [0.017119383439421654, 0.020921306684613228, -0.08002790808677673, -0.010879787616431713, -0.01182323694229126, -0.07217614352703094, -0.04505734145641327, -0.0026733647100627422, 0.034405700862407684, -0.09034203737974167, 0.14718066155910492, -0.014131853356957436, -0.045181527733802795, -0.12852320075035095, -0.04019956663250923, 0.0353720597922802, 0.004263844341039658, 0.042598869651556015, -0.010382863692939281, -0.01319503877311945, 0.02020263671875, 0.10071003437042236, 0.14637872576713562, -0.005239041987806559, 0.07885045558214188, -0.06606154888868332, -0.048952873796224594, 0.003988563548773527, 0.053167302161455154, -0.038492295891046524, -0.0373450331389904, -0.08769774436950684], [0.16275738179683685, 0.011237316764891148, 0.04430926963686943, -0.18164819478988647, -0.02773161232471466, -0.06942754983901978, -0.18021617829799652, -0.0023078194353729486, 0.06444340199232101, -0.021717486903071404, 0.17099782824516296, -0.005875900853425264, 0.04555366188287735, 0.07379420101642609, 0.05175921693444252, -0.050207749009132385, 0.046007368713617325, 0.04626613110303879, 0.019676895812153816, 0.02399306185543537, 0.09315264970064163, 0.29905468225479126, 0.15239283442497253, 0.006229073274880648, 0.033556584268808365, -0.11998056620359421, 0.0904773473739624, 0.013889886438846588, 0.06553469598293304, 0.06897477060556412, -0.1696370244026184, -0.294194757938385], [-0.5048463344573975, 0.02198685333132744, 0.1823931485414505, -0.13163480162620544, -0.0035013100132346153, 0.002303681569173932, -0.08036632090806961, -0.005294688045978546, 0.05021832138299942, 0.06829280406236649, 0.28137484192848206, 0.026552779600024223, 0.0639130100607872, 0.16847844421863556, -0.15486055612564087, -0.05248177424073219, 0.3416327238082886, 0.1316695362329483, 0.05150454118847847, -0.11100292205810547, -0.2846868932247162, 0.22500470280647278, -0.00875687226653099, -0.04262727499008179, -0.10358323156833649, 0.0006086924695409834, 0.23444953560829163, -0.02795160748064518, 0.07180704176425934, 0.0070214844308793545, -0.048744991421699524, -0.24257786571979523], [-0.086013063788414, -0.013406747952103615, 0.3294540047645569, -0.14112906157970428, 0.0116991326212883, -0.045821838080883026, -0.1324138343334198, -0.011242782697081566, -0.00639245705679059, 0.06544127315282822, 0.13036955893039703, 0.14765377342700958, -0.07720056176185608, 0.020357677713036537, 0.09614326804876328, -0.05263236165046692, 0.028680523857474327, 0.07036667317152023, -0.027227172628045082, 0.016555752605199814, -0.06032928079366684, 0.2850211262702942, -0.19784857332706451, -0.003027134807780385, 0.0017793594161048532, -0.08474605530500412, 0.170487180352211, -0.0169443991035223, 0.04183046892285347, -0.005229666363447905, 0.046383295208215714, -0.2606450617313385], [0.18363119661808014, -0.003505516331642866, -0.19121943414211273, -0.20564906299114227, -0.11905676871538162, -0.0010449268156662583, 0.253560334444046, 0.006535088177770376, -0.20280711352825165, 0.29378753900527954, -0.5426726937294006, -0.1045396625995636, -0.06840938329696655, -0.8176354765892029, 0.3885143995285034, -0.09531375020742416, 0.15537036955356598, -0.08937440067529678, 0.04605746641755104, -0.02535623125731945, 0.47162383794784546, 0.3482736051082611, -0.040360189974308014, 0.035055212676525116, -0.003472113749012351, -0.011766290292143822, 0.05824385583400726, -0.0202476866543293, -0.0612802617251873, 0.2149481326341629, -0.1736047863960266, -0.08006372302770615], [-0.03682306408882141, 0.0032985361758619547, -0.0035313661210238934, 0.03069998510181904, -0.003489437745884061, -0.03499753400683403, -0.02283862791955471, 0.004647709894925356, -0.09874795377254486, -0.0791122317314148, 0.06895408034324646, -0.09966568648815155, 0.2659456133842468, 0.021910523995757103, -0.05095155909657478, -0.31408727169036865, -0.17132243514060974, -0.05837714672088623, 0.22285805642604828, -0.15564608573913574, 0.025409718975424767, -0.021592862904071808, 0.03386305272579193, 0.003392881015315652, 0.1653398722410202, 0.03666090592741966, 0.16590872406959534, 0.013950816355645657, 0.005740643944591284, -0.13623753190040588, -0.005367155186831951, -0.0023043681867420673], [-0.07588796317577362, 0.004412796813994646, -0.049391936510801315, 0.27322420477867126, -0.14970749616622925, 0.05683432146906853, 0.10376910120248795, 0.030569760128855705, -0.20223763585090637, 1.206702709197998, -0.05183880776166916, -0.08588676899671555, 0.25418734550476074, 0.14717142283916473, 0.04203283041715622, -0.08231616020202637, -0.14229363203048706, -0.08691705763339996, -0.020685069262981415, 0.013016240671277046, -0.04643985256552696, 0.039860837161540985, -0.34225139021873474, -0.004308330360800028, 0.09650466591119766, -0.13236042857170105, 0.03497939929366112, -0.01081539411097765, 0.09047672897577286, 0.006332199554890394, -0.2109968513250351, 0.12799318134784698], [0.3589031994342804, 0.020046737045049667, 0.012159657664597034, 0.13287915289402008, 0.05381730943918228, 0.05517537146806717, -0.20153261721134186, 0.006342826411128044, -0.2091374397277832, 0.07915134727954865, 0.11501048505306244, -0.11519297957420349, 0.04547055438160896, 0.26940998435020447, 0.0036946667823940516, -0.11143648624420166, -0.28675809502601624, 0.010630868375301361, -0.13250814378261566, -0.19035480916500092, -0.6662654280662537, -0.21781419217586517, -0.03370227664709091, 0.05713231861591339, 0.03132302314043045, -0.03717263415455818, -0.10875623673200607, 0.06398069113492966, 0.03977126628160477, -0.048334479331970215, 0.4755267798900604, 0.24374748766422272], [-0.07119499146938324, 0.022576119750738144, 0.06634001433849335, 0.25653594732284546, -0.1808158904314041, 0.09139945358037949, 0.042320918291807175, 0.006500485353171825, 0.04780810698866844, 0.14957916736602783, 0.08077701926231384, 0.09933535754680634, -0.28984445333480835, -0.036210231482982635, 0.03644057735800743, -0.11756760627031326, -0.13404645025730133, 0.16776306927204132, -0.40391477942466736, 0.040573909878730774, -0.03280409798026085, -0.036892250180244446, 0.025916727259755135, 0.14164859056472778, -0.020255208015441895, -0.10353279858827591, 0.03292454034090042, 0.1111486479640007, 0.03413435071706772, 0.19520092010498047, 0.013606898486614227, 0.04353925958275795], [0.04479115456342697, 0.032902564853429794, -0.08034506440162659, -0.22938640415668488, -0.020436109974980354, 0.19269007444381714, 0.03378430753946304, -0.05647234618663788, -0.28014513850212097, -0.15726043283939362, 0.06464149057865143, -0.2776886820793152, -0.032239314168691635, 0.22779138386249542, 0.014417837373912334, -0.04955499991774559, 0.07203249633312225, 0.5970224142074585, -0.2406471073627472, 0.13700498640537262, 0.007800715044140816, 0.0015889889327809215, -0.11363466084003448, -0.07779384404420853, -0.34625786542892456, -0.021381406113505363, -0.09013747423887253, -0.0567769818007946, -0.10209851711988449, 0.5407687425613403, -0.06302347034215927, -0.022273236885666847], [0.06452877074480057, 0.09139228612184525, 0.011641210876405239, -0.2133713811635971, 0.18073290586471558, 0.18884015083312988, 0.40415826439857483, 0.05042739585042, 0.05573730543255806, 0.09762902557849884, 0.03997237607836723, 0.3501242697238922, -0.06776393204927444, 0.2763376235961914, -0.10174598544836044, -0.3058982789516449, -0.4598284363746643, 0.5605846643447876, 0.0043882690370082855, -0.3692935109138489, 0.6399840712547302, -0.03411146253347397, 0.18012718856334686, -0.20754629373550415, 0.07691018283367157, -0.1698465794324875, 0.008538228459656239, -0.11879879981279373, 0.17613133788108826, -0.4678683876991272, 0.186886265873909, 0.20639541745185852], [0.01261556800454855, -0.02048877812922001, -0.002217522356659174, -0.1081504374742508, 0.008812466636300087, 0.053369246423244476, 0.03271212428808212, -0.007125118747353554, 0.023223137483000755, 0.0007054607267491519, 0.10440342873334885, 0.012773388996720314, -0.031431738287210464, -0.06911855190992355, 0.01309624407440424, 0.017998138442635536, 0.036338306963443756, -0.01109649520367384, 0.03331761807203293, 0.12462712079286575, 0.02391965128481388, 0.017357582226395607, -0.05705294385552406, -0.0016976697370409966, -0.05014211684465408, -0.015574703924357891, -0.124249666929245, -0.01821232959628105, -0.045067962259054184, 0.012925765477120876, -0.003919809125363827, -0.0018563781632110476], [-0.14810118079185486, -0.00019886510563082993, -0.054189518094062805, -0.009161131456494331, 0.03984077274799347, -0.0032981731928884983, -0.03009309433400631, -0.0010819092858582735, 0.3520907163619995, 0.32304680347442627, 0.3251280188560486, 0.07692541182041168, 0.24258540570735931, 0.44682082533836365, -0.048827894032001495, -0.13125434517860413, -0.18120288848876953, -0.02160566672682762, -0.21212269365787506, 0.22333143651485443, 0.04458431527018547, -0.013111088424921036, -0.04853203147649765, 0.0637868344783783, 0.013897480443120003, -0.128439798951149, -0.17636628448963165, 0.04796396195888519, -0.03249840810894966, -0.05449024960398674, -0.09836924821138382, -5.409333243733272e-05], [0.02664867974817753, 0.12756772339344025, 0.19075249135494232, -0.351491779088974, -0.1163358986377716, -0.03914584591984749, -0.049945101141929626, -0.0019940349739044905, -0.3806028962135315, -0.04280684143304825, -0.1506296992301941, -0.2529740631580353, 1.5577986240386963, -0.14442214369773865, 0.035593513399362564, 0.7982491850852966, 0.024461088702082634, 0.6928902864456177, 0.05071078613400459, 0.09065278619527817, 0.12554791569709778, -0.17035816609859467, -0.01580185815691948, 0.23128218948841095, -0.04208216071128845, -0.7303222417831421, 0.3054411709308624, 0.1555880308151245, -0.18464091420173645, 0.07142461091279984, 0.020143479108810425, -0.021241789683699608], [0.18049217760562897, 0.01802748069167137, 0.12722070515155792, 0.07194811850786209, -0.0025013003032654524, 0.00042514066444709897, -0.18418186902999878, -0.0238565132021904, -0.04005134850740433, -0.3673882484436035, 0.39462363719940186, -0.036367420107126236, -0.2515965700149536, -0.3472472131252289, 0.05202525854110718, -0.1371118724346161, -0.16883979737758636, 0.005804825574159622, -0.023663658648729324, 0.08420927077531815, 0.04101148247718811, 0.30186736583709717, 0.1090989038348198, 0.00616290420293808, 0.05029459670186043, -0.04311932623386383, -0.1432925909757614, -0.05621245875954628, -0.06198389455676079, -0.15898729860782623, 0.02016042359173298, -0.061093952506780624], [-0.1632765233516693, -0.005626358091831207, 0.024987991899251938, -0.060381971299648285, 0.0991203784942627, 0.1366393268108368, 0.3226940631866455, -0.07038456201553345, -0.053462252020835876, 0.42232269048690796, -0.36630964279174805, 0.04435667395591736, -0.34796738624572754, 0.013419097289443016, 0.021264437586069107, -0.17867475748062134, -0.4199657142162323, 0.14125721156597137, -0.4265522360801697, 0.12050899863243103, 0.3551744520664215, 0.29592207074165344, 0.10460018366575241, 0.0045931339263916016, 0.05471545457839966, -0.08647044748067856, 0.06003626808524132, 0.0476558618247509, 0.15080101788043976, 0.12668107450008392, 0.44032058119773865, -0.009702816605567932], [0.22412075102329254, -0.10033862292766571, -1.517905592918396, -0.12699906527996063, 0.05811294540762901, 0.03126994147896767, -0.20250068604946136, 0.0449674129486084, -0.07959581911563873, -0.26927757263183594, 0.29146847128868103, 0.04559369757771492, 0.7521404027938843, -0.07068067044019699, 0.022963225841522217, 0.11856795102357864, 0.04452664777636528, 0.06618687510490417, -0.12413794547319412, 0.02122449316084385, -0.3717643916606903, 0.01900937408208847, -1.339663028717041, 0.005431191995739937, 0.023515937849879265, 0.39132365584373474, 0.09464311599731445, -0.098561130464077, -0.15383264422416687, -0.050654519349336624, -0.027269301936030388, -0.14217890799045563], [-0.1759703904390335, 0.16891556978225708, -0.15972310304641724, 0.4543241560459137, -0.035281114280223846, 0.010119953192770481, -0.39075398445129395, -0.059305254369974136, -0.23234133422374725, 2.4445886611938477, 0.06424819678068161, -0.18591728806495667, 0.5871151685714722, 1.2101372480392456, -0.07127804309129715, -0.8157346248626709, -0.32470062375068665, -0.3060151934623718, -0.11657381802797318, -0.15755142271518707, -0.3553844690322876, -0.2064511477947235, 0.1003788635134697, -0.05955130234360695, 0.032077305018901825, -0.0017136845272034407, 0.1985442340373993, -0.05714341998100281, 0.29403844475746155, -0.13547822833061218, -0.29980868101119995, 0.12416943907737732], [0.12400040030479431, 0.054842982441186905, 0.0817016139626503, -0.023647647351026535, -0.09165814518928528, -0.159371480345726, 0.20032468438148499, -0.017832230776548386, -0.13022467494010925, -0.025623954832553864, -0.5926142930984497, -0.07434560358524323, -0.06853608787059784, 0.21998678147792816, 0.15760348737239838, 0.2052128165960312, 0.21945352852344513, -0.6526842713356018, 0.15300555527210236, -0.07504662126302719, 0.155222550034523, 0.11292882263660431, -0.2517853081226349, 0.14517900347709656, -0.12285186350345612, 0.013873116113245487, 0.029038462787866592, 0.09497126936912537, -0.0600430890917778, -0.04195976257324219, -0.052616097033023834, -0.061981018632650375], [-0.22405709326267242, 0.1166471391916275, 0.02866368740797043, 0.21228882670402527, 0.2372702956199646, 0.15659557282924652, 0.2126249223947525, -0.061004213988780975, -0.058648720383644104, -0.8213587403297424, 0.34140196442604065, 0.31768402457237244, 0.5553928017616272, 0.0005957497633062303, 0.017334626987576485, -0.23561938107013702, 0.019998453557491302, -0.6171078085899353, -0.10285353660583496, -0.18620525300502777, -0.003944990690797567, 0.050887659192085266, -0.06072298809885979, 0.12969905138015747, -0.32250118255615234, 0.08822716772556305, -0.17016369104385376, 0.4123445749282837, -0.06684308499097824, -0.33163565397262573, -0.0935022160410881, -0.051573798060417175], [-0.13509853184223175, 0.07478878647089005, 0.02952399291098118, 0.273617684841156, -0.05097467079758644, -0.3029114902019501, 0.30171242356300354, -0.11083833128213882, 0.11400529742240906, -0.07717711478471756, -0.5389958024024963, 0.2852311432361603, 0.006694070994853973, -0.06288506835699081, 0.05057263746857643, -0.23093271255493164, -0.036444809287786484, 0.21337173879146576, -0.05737447366118431, -0.2364298552274704, -0.4144880771636963, 0.06614331156015396, 0.06104641780257225, 0.0031235755886882544, 0.21723434329032898, -0.06562062352895737, -0.04725058376789093, -0.3890830874443054, 0.24905280768871307, -0.8132057189941406, -0.1526574045419693, -0.026977570727467537], [-0.2405320703983307, 0.1307990849018097, -0.062395937740802765, 0.002547091105952859, -0.019189151003956795, -0.32229119539260864, 0.03793017566204071, -0.061792850494384766, -0.15185792744159698, -0.627249002456665, -0.1299532949924469, 0.14864301681518555, 0.4560953974723816, -0.03552708029747009, 0.11251407116651535, -0.5159971714019775, -0.6583780646324158, -0.21339085698127747, -0.32858896255493164, -0.17981907725334167, 0.15743066370487213, 0.12471497058868408, -0.1163821890950203, -0.36373013257980347, 0.7687177658081055, -0.15770936012268066, -0.12241600453853607, -0.2931390106678009, 0.3789997696876526, 0.11586257815361023, 0.27390608191490173, 0.006943262182176113], [-0.024146651849150658, -0.18689274787902832, 0.11887173354625702, -0.259827584028244, 0.3754875957965851, 0.16439726948738098, 0.29156672954559326, 0.09089414030313492, 0.20309273898601532, -0.1619197279214859, -0.1875186413526535, 0.09860081970691681, 0.04709671437740326, -0.30414655804634094, -0.13794803619384766, 0.09281419217586517, 0.5793862342834473, -0.14488297700881958, 0.00048680807230994105, -0.001542676822282374, -0.14024442434310913, 0.06987032294273376, -0.03865860402584076, 0.15768364071846008, 0.026002608239650726, 0.1663588285446167, -0.1291843056678772, 0.3254871964454651, -0.536277711391449, -0.026238037273287773, -0.17943689227104187, -0.078717440366745], [-0.4531850814819336, 0.10089314728975296, -0.07554349303245544, 0.1857822984457016, 0.006008581258356571, 0.05755361542105675, -0.2134947031736374, -0.07742127776145935, -0.04101881384849548, -0.23397743701934814, -0.31987911462783813, -0.14281977713108063, 0.0991479903459549, 0.3891165554523468, 0.26283544301986694, 0.251904159784317, 0.24247999489307404, -0.10200045257806778, -0.5746585130691528, 0.07355387508869171, -0.06737151741981506, 0.007043870631605387, -0.06476219743490219, -0.035517387092113495, 0.12027442455291748, -0.21213491261005402, -0.03754892200231552, 0.07387681305408478, 0.1334577202796936, 0.3255826234817505, -0.18308237195014954, 0.0703321024775505], [-0.27010297775268555, -0.037603843957185745, -0.0036126775667071342, 0.2936778962612152, 0.025062406435608864, -0.008191972970962524, -0.7124865055084229, -0.0806068554520607, -0.1275804191827774, 0.0022263836581259966, -0.4360620975494385, -0.022428691387176514, -0.11645843833684921, 0.12479212880134583, 0.2147931605577469, -0.16707679629325867, 0.07634977251291275, -0.24024096131324768, -0.17077480256557465, -0.10006402432918549, 0.1893940269947052, -0.11924848705530167, 0.04066614434123039, 0.06508765369653702, -0.046184293925762177, 0.00770947802811861, -0.04088520258665085, 0.08827687799930573, -0.025458185002207756, 0.22935046255588531, -0.09378787130117416, -0.024890441447496414], [0.02734965831041336, 0.0007872644928283989, 0.04375825077295303, -0.10326787084341049, -0.005881868302822113, 0.0015511868987232447, -0.0978149026632309, -0.001033376669511199, 0.02331959456205368, 0.005005274899303913, 0.139023557305336, 0.01059509627521038, 0.011565890163183212, -0.0005746700335294008, 0.012007554993033409, 0.0036001447588205338, -0.011034430004656315, 0.01611044816672802, 0.003835750510916114, -0.004422972910106182, -0.10706979781389236, 0.21242988109588623, 0.03909824416041374, 0.00018183600332122296, 0.004046930465847254, -0.0688512995839119, 0.03710559755563736, 0.0016781447920948267, 0.013683007098734379, 0.009584572166204453, -0.020509028807282448, -0.1786770075559616], [0.1489112675189972, -0.040387727320194244, -0.4647504687309265, -0.02353905886411667, 0.03615054115653038, 0.025160212069749832, -0.07197419553995132, 0.018879953771829605, -0.14277616143226624, 0.6005276441574097, 0.11934267729520798, -0.08074449747800827, 0.6478884816169739, -0.14344041049480438, -0.0621422715485096, -0.09043972939252853, -0.05642510950565338, -0.102515809237957, -0.06602203100919724, 0.1706445813179016, -0.05366390943527222, -0.021066710352897644, 0.26249265670776367, 0.02766595222055912, -0.015281444415450096, 0.0976639986038208, 0.11987891793251038, -0.047279853373765945, -0.0733984112739563, -0.041270945221185684, -0.14547792077064514, 0.03962978348135948], [0.1073557585477829, 0.025743862614035606, 0.07280119508504868, 0.0803932324051857, -0.08642763644456863, 0.1042807474732399, -0.015918387100100517, 0.004993733484297991, 0.1695813238620758, -0.14986228942871094, -0.08108410239219666, -0.004734635818749666, 0.18526315689086914, 0.031176991760730743, -0.019235221669077873, -0.14186808466911316, -0.06623205542564392, -0.19161023199558258, -0.19885525107383728, 0.11640677601099014, -0.08984054625034332, -0.017366044223308563, -0.04490644112229347, -0.10704052448272705, -0.46516308188438416, -0.13957485556602478, -0.003955785185098648, -0.017320655286312103, -0.3753596842288971, -0.12763741612434387, -0.07711519300937653, 0.02352355234324932], [-0.2996204197406769, -0.16451972723007202, -0.13071413338184357, 0.08456001430749893, -0.06320573389530182, -0.31298255920410156, 0.1491096317768097, 0.02693777158856392, 0.14193964004516602, 0.08492452651262283, -0.1928030550479889, -0.047859035432338715, -0.04607924818992615, -0.11946675181388855, 0.1994430124759674, 0.5456141829490662, -0.4563457667827606, -0.3401012420654297, 0.012053520418703556, -0.07025273889303207, 0.12960775196552277, 0.07733489573001862, -0.07687225192785263, 0.3776729702949524, -0.020566426217556, -0.05008038505911827, -0.12335825711488724, 0.0407528281211853, -0.22764581441879272, -0.3073074221611023, 0.28733792901039124, -0.022763172164559364], [-0.17791669070720673, -0.019640488550066948, -0.08731689304113388, 0.03641697019338608, -0.002140242839232087, -0.009722636081278324, 0.06899010390043259, 0.015786362811923027, -0.24769556522369385, -0.1625140905380249, -0.03996967896819115, 0.03576475754380226, -0.3347342312335968, -0.11667042970657349, -0.09105201065540314, 0.25088706612586975, 0.130803644657135, 0.03820790722966194, -0.0038015011232346296, 0.004295829683542252, 0.024721967056393623, -0.14224497973918915, -0.07028133422136307, -0.04892894625663757, -0.090263232588768, 0.09714800119400024, -0.09539398550987244, -0.043637968599796295, 0.10824824124574661, -0.10806611180305481, -0.04151788353919983, 0.15218263864517212], [-0.38095301389694214, 0.007009257562458515, 0.2668595314025879, -0.22911304235458374, 0.061883796006441116, 0.03680770844221115, 0.1969999521970749, -0.01700339838862419, -0.1935923546552658, -1.0653483867645264, 0.06465508788824081, 0.17219851911067963, -0.5046419501304626, -0.5316700339317322, 0.07992379367351532, 0.16286052763462067, -0.021203408017754555, 0.08039718121290207, -0.07139327377080917, 0.19496305286884308, -0.05452677235007286, 0.14297069609165192, -0.18739096820354462, 0.0040263645350933075, -0.14946918189525604, 0.0038780260365456343, -0.07806231826543808, -0.054933637380599976, 0.06586924940347672, 0.14109203219413757, 0.027119290083646774, -0.11360689252614975], [0.013637526892125607, 0.008894420228898525, 0.014812961220741272, -0.030063055455684662, -0.06862545013427734, 0.27700984477996826, -0.038965944200754166, -0.01235868874937296, -0.06067176163196564, -0.02466730587184429, 0.057562485337257385, -0.09549767524003983, 0.12724801898002625, 0.11924983561038971, -0.10783803462982178, -0.23971493542194366, 0.1441146731376648, -0.06342603266239166, -0.3295864462852478, -0.07368026673793793, 0.045606132596731186, -0.08737447112798691, 0.12132758647203445, 0.065482959151268, -0.2510639429092407, -0.16777752339839935, 0.05731820687651634, -8.251157851191238e-05, -0.43317797780036926, -0.023519383743405342, 0.06488893181085587, 0.039926037192344666], [-0.15073701739311218, 0.027537325397133827, 0.05789493769407272, 0.11984729021787643, 0.07482460886240005, -0.1764259934425354, -0.012652188539505005, -0.012281950563192368, -0.2842138409614563, 0.23457035422325134, 0.0024793590418994427, -0.03914342448115349, -0.04236309230327606, 0.07404651492834091, -0.047481901943683624, 0.3717469871044159, -0.3629003167152405, -0.10676562041044235, 0.50992751121521, -0.20944581925868988, 0.02149890922009945, 0.06520019471645355, 0.06914841383695602, 0.0355851985514164, 0.3157660663127899, 0.04151079058647156, 0.30764275789260864, 0.07706907391548157, -0.1813494861125946, -0.45327314734458923, 0.153786763548851, -0.06227946653962135], [-0.008372127078473568, 0.12178712338209152, -0.05140608176589012, -0.08446231484413147, -0.37322744727134705, -0.538052499294281, -0.10901905596256256, -0.05178721994161606, -0.16254423558712006, -0.04758814349770546, 0.2705031633377075, -0.03383118659257889, 0.14119452238082886, 0.051354553550481796, 0.07117994129657745, 0.10843859612941742, 0.7337403893470764, -0.5117188692092896, 0.30539998412132263, -0.6182980537414551, 0.5046751499176025, 0.04310009256005287, 0.04513652250170708, -0.047682441771030426, -0.030406968668103218, 0.3156779110431671, -0.0825597420334816, -0.08458471298217773, 0.26271870732307434, -0.16417966783046722, -0.0028335079550743103, -0.04584212228655815], [0.4587763547897339, -0.04677257314324379, 0.46728619933128357, -0.02641630545258522, 0.034997425973415375, 0.032345324754714966, 0.35816195607185364, -0.015256300568580627, 0.22967936098575592, 0.029117709025740623, 0.5257809162139893, -0.03080039471387863, -0.14076721668243408, -0.015615892596542835, 0.2465786337852478, -0.11352687329053879, -0.5820454955101013, -0.26553642749786377, 0.035069119185209274, -0.13164553046226501, -0.04173422232270241, -0.13796648383140564, 0.0050303395837545395, 0.20508964359760284, 0.08580944687128067, -0.19262748956680298, 0.0749521553516388, -0.022431395947933197, -0.3547825813293457, 0.11838918924331665, -0.11294230818748474, -0.02498101070523262], [0.08406612277030945, 0.04663766175508499, -0.29880791902542114, 0.06426766514778137, -0.03116995468735695, 0.10445816069841385, 0.07671421766281128, 0.01366931851953268, -0.04560849443078041, 0.0967254564166069, -0.06303106993436813, -0.2387656718492508, 0.23419123888015747, -0.010708306916058064, -0.11235737055540085, 0.05888034775853157, -0.09425417333841324, -0.13359341025352478, 0.03882595896720886, -0.062371876090765, 0.02278229035437107, -0.18518583476543427, 0.23064492642879486, -0.005179763771593571, -0.03422529622912407, 0.06766189634799957, -0.15684323012828827, 0.02410239540040493, -0.012783296406269073, 0.12191010266542435, -0.10909401625394821, 0.08272459357976913], [-0.35114023089408875, 0.035606563091278076, -0.05738084763288498, -0.13706479966640472, -0.029381830245256424, -0.14313922822475433, -0.3470553457736969, -0.008543424308300018, 0.16844110190868378, -0.16383413970470428, 0.1466130018234253, -0.07695980370044708, -0.0016871056286618114, 0.12332197278738022, -0.03273729607462883, 0.03989243879914284, 0.20511168241500854, -0.0625302642583847, 0.04804302006959915, 0.1748104989528656, -0.11640959233045578, 0.10829245299100876, 0.14037208259105682, 0.009165346622467041, 0.03886708617210388, -0.0024202733766287565, -0.027715636417269707, -0.0031323377043008804, -0.009434511885046959, -0.1068759337067604, -0.34853461384773254, -0.11025747656822205], [0.02065373957157135, 0.003309271764010191, -0.025279562920331955, 0.010546404868364334, -0.0033026104792952538, -0.0016013678396120667, 0.003524209838360548, 0.0012141269398853183, 0.005436072591692209, 0.01783948391675949, -0.022755887359380722, -0.014115738682448864, 0.02814400941133499, 0.008442340418696404, -0.012326824478805065, -0.02044716849923134, -0.00026463184622116387, 0.016185270622372627, 0.005756844766438007, -0.003693832317367196, 0.01238040067255497, -0.026125634089112282, 0.0389554388821125, -0.0003195993194822222, 0.008682779967784882, -0.004660472739487886, -0.07853102684020996, 0.0019608931615948677, -0.006548803299665451, -0.0020640117581933737, -0.02190888300538063, 0.03420235589146614], [0.0698639526963234, -0.03656556084752083, 0.15067502856254578, -0.2857104539871216, -0.013858319260179996, 0.1255185902118683, -0.11791997402906418, 0.025500858202576637, -0.04762055352330208, 0.1171194463968277, 0.23880355060100555, -0.056111786514520645, -0.005798412021249533, -0.11869021505117416, 0.05638466775417328, -0.13071265816688538, -0.05277306213974953, -0.014215540140867233, 0.08315399289131165, 0.03238603100180626, -0.2560056746006012, 0.3914543390274048, 0.002853579819202423, -0.011122508905827999, -0.05867782235145569, -0.06159046292304993, 0.2281368523836136, -0.03239865228533745, 0.007547585293650627, 0.0005603135214187205, -0.12183701992034912, -0.3981783986091614], [0.23168201744556427, -0.04343192279338837, 0.1908777356147766, -0.5698736906051636, 0.06334753334522247, 0.19114384055137634, 0.6522405743598938, 0.010444959625601768, 0.04558200761675835, -0.460350900888443, 0.022188082337379456, 0.3793763816356659, -0.038706980645656586, 0.04779808968305588, 0.017681509256362915, -0.06758462637662888, -0.09661678969860077, 0.15947261452674866, -0.05901258438825607, 8.140513273247052e-06, 0.592269778251648, 0.14746373891830444, -0.10340626537799835, -0.06410129368305206, -0.13676686584949493, 0.0632115826010704, 0.0863456055521965, 0.08747192472219467, -0.05763985589146614, 0.09118444472551346, 0.22930671274662018, -0.25881949067115784], [0.007930300198495388, 0.005530345719307661, -0.01607700251042843, 0.07046768069267273, -0.007652134634554386, -0.006693362258374691, 0.08459696918725967, 0.001189550501294434, -0.009225449524819851, -0.009867754764854908, -0.03873896226286888, -0.026854487136006355, 0.0455358624458313, 0.08188387006521225, 0.0017270040698349476, 0.023514684289693832, 0.01888572797179222, 0.00333514716476202, 0.004581986926496029, -0.007623014971613884, 0.043795641511678696, -0.08288441598415375, 0.011906875297427177, -0.0009314631461165845, 0.009238895028829575, 0.01932804472744465, -0.06404183804988861, 0.0009053588728420436, 0.003875360358506441, 0.02111610397696495, 0.010567674413323402, 0.08852804452180862], [0.0417921356856823, 0.032252416014671326, -0.12944142520427704, -0.024998093023896217, 0.0004675784439314157, 0.004167883191257715, -0.10811970382928848, -0.008259614929556847, 0.028320318087935448, 0.013168193399906158, 0.1392836719751358, -0.04341705143451691, -0.00023647025227546692, -0.035760242491960526, -0.07786937057971954, -0.012537030503153801, -0.10205348581075668, -0.04069754481315613, -0.04565214738249779, 0.02455802820622921, -0.022812170907855034, 0.10725557804107666, 0.13980937004089355, 0.004381014034152031, -0.034807030111551285, -0.047159966081380844, 0.05538562312722206, 0.021661588922142982, 0.012474121525883675, 0.014620955102145672, -0.08929003030061722, -0.05935661494731903], [0.034814007580280304, 0.01781943067908287, 0.10722236335277557, -0.284473180770874, -0.0022603566758334637, 0.014289950020611286, -0.1324080377817154, 0.0021618010941892862, -0.04575047269463539, -0.012357775121927261, 0.3699680268764496, -0.01187118235975504, -0.049736443907022476, 0.007676443085074425, 0.0022320460993796587, 0.026935160160064697, 0.015964996069669724, 0.08582548797130585, 0.07591084390878677, -0.06397350132465363, -0.1986122727394104, 0.42063796520233154, -0.04968622699379921, 0.02044893614947796, 0.03918919339776039, 0.03611958399415016, 0.13022227585315704, -0.024343084543943405, -0.04761191084980965, 0.02201167494058609, -0.016912715509533882, -0.378732293844223], [0.008815747685730457, -0.0006567388190887868, -0.012866583652794361, 0.02135898545384407, 0.00032470442238263786, -0.0030924270395189524, 0.016043776646256447, 0.0007146051502786577, -8.940102998167276e-05, 0.0009183211368508637, -0.021080464124679565, -0.0022962866351008415, 0.003438556334003806, -0.01383697148412466, -0.0018372085178270936, -0.001366224605590105, 0.0031110569834709167, -0.0026952861808240414, 0.002328283619135618, -0.0014060655375942588, 0.00890820287168026, -0.05575866624712944, 0.0016797735588625073, 0.00024379740352742374, 0.0012534002307802439, 0.006048244424164295, -0.02450254000723362, -1.9520235582604073e-05, -0.004761610645800829, 0.002493001753464341, 0.0010311652440577745, 0.052927277982234955], [0.2885493338108063, -0.03646654635667801, 0.00782022625207901, 0.016698727384209633, -0.0010821453761309385, 0.10140031576156616, -0.09108617156744003, 0.01973271369934082, -0.16334621608257294, 0.20962253212928772, -0.08260592818260193, 0.03749440982937813, -0.14794449508190155, -0.23602326214313507, 0.04088272899389267, -0.13758060336112976, -0.056095294654369354, 0.029484260827302933, 0.06041774898767471, -0.0391533225774765, -0.0500575415790081, 0.022763345390558243, -0.12079448997974396, -0.0025647315196692944, -0.016001462936401367, 0.060740258544683456, -0.06502854079008102, -0.028018353506922722, -0.02045794017612934, -0.024954961612820625, 0.014872443862259388, 0.011775010265409946], [0.08180330693721771, 0.00032929741428233683, 0.1990049034357071, -0.3138265907764435, -0.00883777067065239, -0.014160683378577232, -0.2440166175365448, 0.0015743375988677144, 0.11554775387048721, -0.05147555470466614, 0.27920377254486084, 0.07147475332021713, -0.04584437236189842, -0.017336776480078697, 0.07375616580247879, -0.020176228135824203, 0.007069854997098446, 0.038047198206186295, 0.0245091300457716, -0.009172992780804634, -0.23307792842388153, 0.5326485633850098, 0.025745460763573647, 0.004212530329823494, -0.013324358500540257, -0.18977539241313934, 0.1607857048511505, 0.002087522065266967, 0.020716914907097816, 0.026148920878767967, -0.006148446351289749, -0.5192549824714661], [0.19145740568637848, -0.012122878804802895, -0.07965367287397385, -0.2452087700366974, 0.022408653050661087, 0.13025031983852386, -0.11515335738658905, -0.00830851960927248, -0.10217331349849701, 0.06449848413467407, 0.5642788410186768, 0.16891394555568695, -0.14382100105285645, -0.006614110432565212, -0.0882413312792778, -0.0015753126936033368, -0.13499338924884796, 0.0918499007821083, 0.044779058545827866, -0.0697770044207573, -0.031198041513562202, 0.3824012279510498, -0.08961174637079239, -0.011360135860741138, -0.15020768344402313, 0.03547275811433792, 0.09331011772155762, -0.038095373660326004, -0.048866525292396545, 0.03336484730243683, 0.004935764707624912, -0.3693713843822479], [-0.09798475354909897, 0.0029227621853351593, 0.02714078687131405, -0.05841827392578125, -0.00598676735535264, 0.013470415025949478, -0.1206740289926529, -0.0033739234786480665, 0.006351735442876816, 0.013893434777855873, 0.11453112959861755, -0.028504833579063416, -0.04915636032819748, 0.13130445778369904, -0.017107529565691948, -0.10114572197198868, 0.02083997242152691, 0.016509855166077614, -0.0023308314848691225, 0.0330585278570652, -0.13781367242336273, 0.16080734133720398, 0.06915689259767532, -0.013864722102880478, 0.02333665080368519, -0.05056287720799446, -0.042794689536094666, -0.009850716218352318, 0.03524650260806084, -0.03974272310733795, -0.10603605955839157, -0.1363411396741867], [-0.1766534149646759, 0.0064368112944066525, 0.4304737150669098, -0.27166739106178284, -0.02414303459227085, -0.011744764633476734, -0.20892857015132904, 0.005114713683724403, 0.22496269643306732, -0.40167680382728577, 0.1938178688287735, -0.03835013508796692, -0.0168622937053442, 0.05334706977009773, 0.018320173025131226, 0.10095372051000595, 0.04406219720840454, 0.029224133118987083, 0.04261181876063347, 0.0658888965845108, -0.1292855590581894, 0.28724193572998047, 0.025369280949234962, 0.016745952889323235, 0.03032303974032402, -0.13942761719226837, 0.3688057065010071, 0.06009925901889801, 0.002140611410140991, -0.015439741313457489, -0.026981208473443985, -0.27013394236564636], [-0.11913125216960907, -0.01458834484219551, 0.0923585444688797, 0.1761649250984192, 0.05706822872161865, -0.037911903113126755, 0.002325003733858466, -0.019171252846717834, -0.4442291855812073, -0.2198818475008011, -0.15874996781349182, 0.30125659704208374, -0.10869258642196655, 0.00893687829375267, -0.026216620579361916, 0.022852063179016113, 0.00847632996737957, -0.016720620915293694, -0.046311549842357635, -0.24346566200256348, 0.11463160067796707, -0.1525142937898636, 0.08427166193723679, -0.015498235821723938, -0.1402273178100586, -0.04187225550413132, 0.24282002449035645, 0.0700354352593422, 0.07989035546779633, 0.14666418731212616, 0.17313989996910095, 0.1653841733932495], [0.021490246057510376, -0.0030037080869078636, -0.10447277128696442, 0.016631748527288437, -0.0009471471421420574, 0.0008129761554300785, -0.027129294350743294, -0.002948319772258401, 0.13602758944034576, -0.06738463044166565, 0.007534082513302565, 0.06679891049861908, 0.014843028970062733, -0.03937069699168205, -0.10356906056404114, 0.05918728932738304, -0.03110654093325138, 0.12408434599637985, -0.02784731611609459, 0.01207726076245308, 0.012777874246239662, -0.03701534494757652, 0.058839716017246246, -0.006324865855276585, 0.010772031731903553, -0.07178661972284317, -0.05381275713443756, -0.002474346198141575, 0.0017246860079467297, 0.013727754354476929, -0.014448011294007301, 0.01710306853055954], [0.14763040840625763, 0.008706378750503063, 0.09693481028079987, -0.21292893588542938, -0.012135540135204792, -0.01061018742620945, -0.1474677473306656, 0.0008481744443997741, 0.11254506558179855, 0.047112833708524704, 0.23116035759449005, 0.05604758486151695, 0.050023920834064484, -0.022757234051823616, 0.010909337550401688, -0.04760756343603134, -0.0475507415831089, 0.01830928586423397, 0.015715640038251877, -0.020020151510834694, -0.17646166682243347, 0.2973950207233429, 0.08633369952440262, 0.0026659013237804174, -0.010463056154549122, -0.13857890665531158, 0.06734656542539597, 0.00761557137593627, 0.015140039846301079, 0.026519527658820152, -0.03559841960668564, -0.2760103940963745], [-0.043319400399923325, 0.0034142511431127787, -0.020892059430480003, -0.12771259248256683, -0.007553782779723406, -0.0074713146314024925, -0.090563103556633, -0.0003194849705323577, 0.08081131428480148, 0.05383558198809624, 0.21097604930400848, 0.0031532428693026304, 0.023718059062957764, -0.01702646166086197, -0.004727093502879143, -0.021557819098234177, -0.13162505626678467, 0.09790938347578049, -0.050632741302251816, 0.10086698830127716, 0.010766039602458477, 0.217371866106987, 0.03224874287843704, 0.002865930087864399, 0.021050577983260155, -0.1181761771440506, 0.13468223810195923, 0.01681421883404255, 0.037834059447050095, -0.08994797617197037, -0.0687483698129654, -0.15300332009792328], [0.054698504507541656, 0.019126325845718384, 0.02270158939063549, -0.2090374231338501, -0.026360314339399338, -0.0101905707269907, -0.14331068098545074, -0.0018143069464713335, 0.08584235608577728, -0.08322057873010635, 0.19432541728019714, -9.354279609397054e-05, 0.041393958032131195, 0.0035511304158717394, -0.00017188681522384286, -0.04649382829666138, -0.039952829480171204, 0.18289804458618164, -0.014528236351907253, 0.03032783791422844, -0.06588402390480042, 0.25798702239990234, -0.015310319140553474, -0.013666790910065174, 0.04990726336836815, -0.1011199951171875, -0.02709544636309147, -0.0054776850156486034, 0.026936881244182587, 0.006923980545252562, -0.1291896104812622, -0.1949032098054886], [-0.07211437076330185, -0.004309182055294514, 0.07606075704097748, -0.03726104274392128, -0.012801053002476692, 0.02655784972012043, -0.025381505489349365, 0.004379798658192158, -0.044795259833335876, 0.005511380732059479, 0.06252007931470871, -0.019722184166312218, 0.056680046021938324, 0.0900304839015007, -0.02902359515428543, 0.042228925973176956, 0.04410124197602272, 0.09420463442802429, 0.031365592032670975, 0.01133190467953682, 0.028307177126407623, 0.1038859635591507, -0.016489481553435326, -0.01605214923620224, 0.041835397481918335, 0.00977576058357954, -0.016668900847434998, -0.017374003306031227, 0.0229899100959301, -0.0662459060549736, -0.05748201161623001, -0.08353102952241898], [0.3391026258468628, 0.014676536433398724, -0.11119306832551956, 0.007496965583413839, -0.015710948035120964, -0.10991932451725006, 0.1777922362089157, -0.006028101313859224, 0.09030386805534363, 0.09518476575613022, 0.01668138988316059, -0.09498314559459686, 0.05404295027256012, -0.10103505849838257, 0.0574149526655674, -0.020460480824112892, 0.01466025598347187, -0.1646784394979477, 0.02750733681023121, -0.041846007108688354, -0.255298912525177, -0.030466925352811813, 0.11840859800577164, -0.001355635584332049, 0.04674150422215462, 0.03515807166695595, -0.0372292622923851, -0.007490038406103849, 0.0814041793346405, 0.10532013326883316, 0.04880121350288391, 0.05030566453933716], [-0.3071225583553314, -0.05098991468548775, 0.09406518936157227, 0.061832450330257416, 0.008706863038241863, 0.04487735033035278, -0.09952285140752792, 0.012339144013822079, -0.374490886926651, 0.09570052474737167, 0.3692365288734436, -0.14369630813598633, -0.10520325601100922, -0.3260103166103363, 0.20097117125988007, 0.07277150452136993, 0.1182987317442894, -0.11339675635099411, -0.04021583870053291, 0.00024159446184057742, -0.43389424681663513, 0.33197078108787537, -0.04054379463195801, -0.0705396756529808, 0.031357210129499435, 0.06130138784646988, 0.17743127048015594, -0.06030445545911789, -0.010407628491520882, 0.3993895649909973, -0.2176256626844406, -0.3148026764392853], [0.08176599442958832, -0.01138138398528099, 0.1331861913204193, -0.39189615845680237, -0.019449491053819656, 0.0025965215172618628, -0.11747736483812332, -0.0048180813901126385, 0.04349415376782417, 0.011587023735046387, 0.19975131750106812, 0.09939714521169662, -0.02179579623043537, 0.01608789898455143, 0.07263992726802826, -0.0035060199443250895, -0.04163369536399841, 0.15609999001026154, 0.009863076731562614, 0.036671992391347885, -0.04183431714773178, 0.5513349771499634, 0.03543094918131828, -0.006623715162277222, 0.03504247963428497, -0.14723730087280273, 0.07023593038320541, -0.007489603478461504, 0.05301602557301521, 0.030347764492034912, -0.06500466912984848, -0.5027515292167664], [0.1428757905960083, 0.14832352101802826, 0.10929372161626816, -0.11103975027799606, -0.07517946511507034, -0.16915559768676758, -0.10832089930772781, -0.0041379742324352264, 0.054432135075330734, -0.024227144196629524, 0.028398726135492325, -0.455739289522171, 0.5088731646537781, 0.15017709136009216, -0.06986916065216064, 0.12073935568332672, -0.04708452895283699, 0.1525546908378601, -0.0359291173517704, 0.001492519280873239, -0.001546427607536316, 0.17872270941734314, 0.24876843392848969, 0.008451213128864765, 0.13402420282363892, -0.24345508217811584, -0.010582886636257172, 0.07289910316467285, 0.02158895879983902, -0.14013837277889252, -0.21191588044166565, -0.058238208293914795], [-0.025644119828939438, 0.00043159181950613856, -0.01734027825295925, 0.033652164041996, -0.002124639693647623, 0.025780806317925453, 0.042512379586696625, 0.0016023084754124284, -0.022981127724051476, -0.005545975640416145, -0.012252317741513252, -0.007534385193139315, -0.014910705387592316, 0.01143304817378521, -0.0017212845850735903, 0.0034444991033524275, -0.009681408293545246, 0.04041841998696327, 0.008632516488432884, 0.0025061105843633413, 0.05803501978516579, -0.034703876823186874, -0.025034984573721886, -0.002790678758174181, 0.003203637432307005, 0.037657830864191055, -0.02230660803616047, -0.0008624714682810009, 0.0022534681484103203, 0.02573656663298607, -0.0032487132120877504, 0.05579118803143501], [0.032135650515556335, 0.015820728614926338, 0.0962417870759964, -0.02386605739593506, -0.008948919363319874, -0.06340540200471878, -0.03486593812704086, -0.0006651485455222428, 0.07393458485603333, 0.017786143347620964, 0.13118480145931244, 0.012270771898329258, 0.05804513394832611, 0.05703242868185043, 0.025896277278661728, 0.003356938948854804, -0.06209760531783104, 0.042275283485651016, 0.00869041122496128, 0.043965306133031845, -0.02186744287610054, 0.10928754508495331, -0.16677598655223846, 0.0007552592433057725, 0.054222386330366135, -0.006156208459287882, -0.03662193566560745, -0.002650801558047533, 0.036599040031433105, 0.0052314638160169125, -0.0010197144001722336, -0.05387500673532486], [-0.09683237969875336, 0.09534867852926254, 0.07322876155376434, -0.04827151447534561, -0.01638774573802948, -0.09100823849439621, 0.03698839619755745, -0.01092970184981823, -0.030471421778202057, -0.3695610463619232, -0.1362757533788681, -0.05224277824163437, 0.561629056930542, 0.21232426166534424, -0.1114463359117508, -0.06914671510457993, 0.06122993677854538, 0.09943520277738571, -0.5254459977149963, 0.08697488158941269, 0.19231155514717102, -0.06441890448331833, 0.05459592863917351, 0.15303878486156464, 0.3096015453338623, -0.22387535870075226, -0.0805199146270752, 0.1118822991847992, -0.17271514236927032, 0.01626226119697094, 0.07064177840948105, 0.08614297956228256], [0.062324754893779755, 0.033311471343040466, -0.012177889235317707, -0.057450901716947556, -0.014376096427440643, -0.0593126006424427, -0.05530460178852081, -0.013948285952210426, 0.08057600259780884, 0.3372516334056854, 0.06731005012989044, 0.07570762187242508, 0.2364349514245987, 0.01403286587446928, 0.05095532909035683, -0.07614296674728394, -0.01155657134950161, 0.01026902161538601, -0.01997554488480091, -0.0380440391600132, -0.037779778242111206, 0.24336804449558258, 0.05692699924111366, 0.006760444957762957, 0.033360909670591354, -0.1584717333316803, -0.014747844077646732, 0.033138394355773926, 0.022951796650886536, 0.0877305343747139, -0.03391660004854202, -0.19480720162391663], [-0.01773553155362606, 0.004798995330929756, -0.02396499551832676, 0.053548142313957214, -0.003399333218112588, 0.051610659807920456, 0.02472776174545288, 0.004903310444205999, -0.012343554757535458, -0.09504225850105286, -0.020700892433524132, -0.08641445636749268, -0.0609440803527832, -0.08686073124408722, -0.03205369785428047, -0.021714603528380394, -0.007396141067147255, 0.025492947548627853, 0.04498733580112457, 0.010331927798688412, 0.0355297289788723, -0.05415359511971474, 0.004938455298542976, -0.006308200769126415, -0.005701400805264711, 0.035320550203323364, -0.023381303995847702, -0.010421824641525745, -0.024534087628126144, 0.01907920092344284, -0.03860257938504219, 0.07649100571870804], [-0.009142113849520683, 0.013558556325733662, 0.005723464302718639, 0.09519859403371811, -0.0029467293061316013, -0.06988687813282013, 0.022249050438404083, 0.0032294460106641054, -0.021633626893162727, 0.002048184396699071, 0.058977846056222916, 0.012550439685583115, -0.046091608703136444, -0.029878562316298485, -0.01696980744600296, -0.03793659061193466, 0.05615996941924095, 0.07303399592638016, -0.013716454617679119, -0.06816497445106506, 0.0227421373128891, 0.007655604742467403, -0.021361803635954857, -0.004481662530452013, 0.0779818445444107, 0.008386916480958462, -0.07551218569278717, 0.007610650733113289, 0.034642621874809265, -0.009957995265722275, 0.03171125799417496, 0.0159769244492054], [0.04711650684475899, -0.01055243331938982, 0.017906561493873596, -0.15660889446735382, -0.010700535029172897, 0.03639359772205353, -0.07527213543653488, 0.006273675709962845, 0.010042509995400906, -0.05110134184360504, 0.16360142827033997, 0.0258155670017004, -0.00459070922806859, 0.07472164183855057, 0.013436217792332172, -0.06885311752557755, -0.01663191057741642, 0.07778961956501007, -0.019444335252046585, 0.008634531870484352, -0.055135369300842285, 0.23074014484882355, 0.04467175900936127, -0.015882646664977074, 0.01029784046113491, -0.11124064028263092, 0.009606094099581242, -0.0010715803364291787, 0.04327467456459999, 0.1309691220521927, -0.08467700332403183, -0.19596542418003082], [0.48030540347099304, -0.003150442847982049, 0.020940441638231277, 0.0008445848943665624, -0.015588387846946716, 0.1497085690498352, 0.34919264912605286, 0.034947652369737625, -0.07834771275520325, 0.13790374994277954, -0.06093796342611313, -0.1419752985239029, 0.14279910922050476, 0.02905113995075226, 0.06833881884813309, 0.03767702355980873, -0.059455983340740204, -0.09216152876615524, 0.05807048827409744, -0.05407513305544853, -0.24622099101543427, -0.0036695399321615696, -0.1240323856472969, 0.02829851768910885, -0.09331487864255905, 0.07322260737419128, -0.23270925879478455, 0.0006206687539815903, -0.08080893754959106, 0.1022312343120575, -0.0872107595205307, 0.005679104011505842], [0.07457569241523743, -0.02450687251985073, 0.14525115489959717, -0.3883882761001587, -0.02007252722978592, 0.0507795624434948, -0.14516976475715637, 0.0014921576948836446, 0.036295805126428604, -0.017826450988650322, 0.1169842854142189, 0.13684849441051483, -0.01982121542096138, 0.055340416729450226, 0.1105288714170456, -0.02889171801507473, -0.047106508165597916, 0.05827205255627632, 0.04448295012116432, 0.042815010994672775, -0.017182668671011925, 0.46051740646362305, -0.018845289945602417, -0.0027985142078250647, -0.010860049165785313, -0.09438153356313705, 0.07766275107860565, -0.010508713312447071, 0.0007495591999031603, 0.13486850261688232, -0.12490808218717575, -0.4323189854621887]], "lstm.bias_ih_l0": [-0.5230653882026672, -0.030576234683394432, -0.7709302306175232, 0.23846040666103363, -0.15682117640972137, 0.1258634626865387, -1.002016544342041, -0.06944990158081055, -0.26720577478408813, 0.5181682109832764, -1.0374629497528076, -0.05619797855615616, 0.13476042449474335, 0.42957767844200134, 0.09471224248409271, 0.2270226925611496, -0.2765576243400574, 0.07722140103578568, -0.03290773183107376, -0.0008082331623882055, -0.9212080240249634, 0.14959745109081268, -0.657909095287323, -0.10635381937026978, 0.025543389841914177, -0.11394117027521133, -0.1159500777721405, -0.09286659955978394, -0.07548788189888, -0.04449368268251419, 0.025465277954936028, 0.16062107682228088, 0.7847350239753723, 0.028302563354372978, 1.207335352897644, 0.29699021577835083, -0.012403749860823154, 0.09791982918977737, 1.1920679807662964, -0.013631084002554417, 0.4238818287849426, 0.02421995997428894, 0.9078061580657959, 0.28529950976371765, -0.05952584370970726, 0.03656575828790665, 0.14544683694839478, -0.005643138196319342, 0.35883378982543945, 0.22826847434043884, 0.07014529407024384, 0.07883059233427048, 1.0251435041427612, 0.3693128526210785, 0.7511402368545532, 0.0001297151029575616, 0.21321944892406464, 0.23022137582302094, 0.2615141272544861, 0.07611256837844849, 0.10412036627531052, 0.31333333253860474, 0.2552347481250763, 0.3101162910461426, 0.1537386029958725, -0.01614830456674099, 0.15265889465808868, -0.26660996675491333, -0.033106233924627304, -0.04819861799478531, -0.038897983729839325, -0.04844532907009125, 0.06662701815366745, -0.1570662409067154, 0.1296418309211731, 0.1270078718662262, -0.03691167011857033, 0.00903293490409851, 0.26872095465660095, 0.020318206399679184, 0.09836448729038239, 0.03986215218901634, -0.030260277912020683, 0.17043061554431915, 0.001401616376824677, 0.22941961884498596, 0.053059641271829605, -0.006045299582183361, 0.15727736055850983, -0.13690359890460968, 0.13769184052944183, 0.038601748645305634, -0.013105468824505806, 0.03411656245589256, -0.19253410398960114, -0.20909860730171204, 0.07706449180841446, -0.028928788378834724, 0.4160629212856293, 0.0992957353591919, -0.0846618190407753, 0.11533447355031967, 0.14637862145900726, -0.06441513448953629, 0.013793878257274628, 0.5681267380714417, 0.3323259949684143, 0.1736457347869873, 0.2742944657802582, -0.15945422649383545, -0.025675129145383835, 0.3097129762172699, 0.23538079857826233, 0.27485135197639465, 0.11182146519422531, -0.0466255322098732, 0.18564681708812714, 0.6098518967628479, 0.20408515632152557, -0.029950054362416267, 0.11587626487016678, -0.06406101584434509, 0.2640649676322937, -0.05396116524934769, 0.01753147505223751, 0.24508175253868103, 0.008468803018331528, 0.43135198950767517], "lstm.bias_hh_l0": [-0.5513089299201965, -0.03061128407716751, -0.82437664270401, 0.2406836897134781, -0.156903475522995, 0.1258641928434372, -0.9902055263519287, -0.06956357508897781, -0.26725947856903076, 0.5181887745857239, -0.916869044303894, -0.057158712297677994, 0.13804955780506134, 0.42943060398101807, 0.08962512016296387, 0.22685927152633667, -0.2784431576728821, 0.07721862941980362, -0.03233763948082924, 0.0005512803327292204, -0.9558348655700684, 0.14959745109081268, -0.6538719534873962, -0.10632456839084625, 0.025397738441824913, -0.11436975747346878, -0.11443111300468445, -0.09306537359952927, -0.07549184560775757, -0.03478147089481354, 0.026218848302960396, 0.16062107682228088, 0.8366559147834778, 0.02829866111278534, 1.205070972442627, 0.3165218234062195, -0.012554088607430458, 0.09791966527700424, 1.1125820875167847, -0.013693157583475113, 0.4245326817035675, 0.023531483486294746, 0.8281698822975159, 0.28594377636909485, -0.05590975284576416, 0.04276853799819946, 0.1395728588104248, -0.006460900884121656, 0.3603835701942444, 0.22828799486160278, 0.07059287279844284, 0.07108671963214874, 1.0078089237213135, 0.3693278729915619, 0.7642952799797058, 9.575002331985161e-05, 0.21328039467334747, 0.23025764524936676, 0.26169896125793457, 0.07612918317317963, 0.10414273291826248, 0.31207898259162903, 0.2510537803173065, 0.3101115822792053, 0.10354813188314438, -0.0007218035170808434, 0.20990727841854095, -0.2847168445587158, -0.0006258856155909598, -0.024893641471862793, -0.06439188122749329, -0.021954253315925598, -0.034610409289598465, -0.1416197270154953, -0.0008161303703673184, 0.1424131691455841, 0.1380288153886795, 0.048740942031145096, 0.2297683209180832, 0.03446207568049431, 0.11508104205131531, 0.1035744920372963, 0.05449174717068672, 0.07724280655384064, -0.001325518125668168, 0.2294190675020218, 0.020492639392614365, 0.016726480796933174, 0.192499577999115, -0.13704009354114532, 0.06463904678821564, 0.023572860285639763, 0.049739543348550797, 0.05824996531009674, -0.29207393527030945, -0.209098219871521, 0.06559093296527863, -0.02893061935901642, 0.4165835380554199, 0.030668580904603004, -0.08506664633750916, 0.1153361052274704, 0.14774440228939056, -0.0635685995221138, 0.015542947687208652, 0.5681308507919312, 0.3495877981185913, 0.1731991022825241, 0.2706308662891388, -0.16255666315555573, -0.013173788785934448, 0.30927082896232605, 0.23545710742473602, 0.27485141158103943, 0.1118292286992073, -0.04785360395908356, 0.16153420507907867, 0.637559711933136, 0.20441706478595734, -0.029933197423815727, 0.1154489517211914, -0.06354527920484543, 0.2637943625450134, -0.054053980857133865, 0.017602844163775444, 0.24637126922607422, 0.009109423495829105, 0.49470096826553345], "dense.weight": [[-0.24462845921516418, -0.0749371275305748, 0.06345706433057785, 0.10385143756866455, -0.13572312891483307, -0.11188706755638123, 0.24044917523860931, -0.018379800021648407, -0.10163938254117966, -0.024754691869020462, -0.04887505620718002, -0.4089685380458832, 0.0046515376307070255, -0.026445195078849792, 0.36237022280693054, 0.10905304551124573, 0.42705681920051575, -0.5541618466377258, -0.033965855836868286, 0.26989805698394775, -0.8368574380874634, -0.20919623970985413, -0.10336021333932877, 0.16929064691066742, 0.025736432522535324, 0.09959346055984497, 0.00739709660410881, 0.10365325212478638, -0.08368440717458725, 0.5657331347465515, -0.2009446620941162, 0.043681394308805466]], "dense.bias": [0.1819543093442917]}